import 'dart:math';
List<double> score(List<double> input) {
    double var0;
    if (input[33] > 0.879971746025428) {
        if (input[17] > 0.9123860550337607) {
            if (input[25] > 1.8012738853503187) {
                var0 = 0.298016524682663;
            } else {
                if (input[6] > 244.50000000000003) {
                    if (input[1] <= -3778.9999999999995) {
                        if (input[15] > 0.48508473890709064) {
                            var0 = 0.6669942062757892;
                        } else {
                            var0 = 0.7321079147922234;
                        }
                    } else {
                        if (input[2] > 3202.5000000000005) {
                            if (input[2] > 3350.5000000000005) {
                                if (input[12] > 3595144.5000000005) {
                                    var0 = 0.7321079147922233;
                                } else {
                                    if (input[6] > 9275.000000000002) {
                                        var0 = 0.7321079147922233;
                                    } else {
                                        var0 = 0.69995299700633;
                                    }
                                }
                            } else {
                                var0 = 0.69995299700633;
                            }
                        } else {
                            if (input[1] <= -2438.9999999999995) {
                                if (input[8] > 7287.500000000001) {
                                    var0 = 0.7104033452867453;
                                } else {
                                    var0 = 0.7321079147922233;
                                }
                            } else {
                                if (input[10] > 3440.3333333333335) {
                                    if (input[10] > 3463.6666666666674) {
                                        var0 = 0.7321079147922233;
                                    } else {
                                        var0 = 0.7154120920957017;
                                    }
                                } else {
                                    var0 = 0.7321079147922233;
                                }
                            }
                        }
                    }
                } else {
                    var0 = 0.5622460664884823;
                }
            }
        } else {
            if (input[11] > 55938922.00000001) {
                if (input[11] > 80956496.50000001) {
                    var0 = 0.3807005989892459;
                } else {
                    var0 = 0.298016524682663;
                }
            } else {
                if (input[8] > 6068.500000000001) {
                    var0 = 0.7321079147922233;
                } else {
                    var0 = 0.6018804977593551;
                }
            }
        }
    } else {
        if (input[33] > 0.8688450073222519) {
            var0 = 0.355895376697271;
        } else {
            if (input[0] > 4.500000000000001) {
                var0 = 0.298016524682663;
            } else {
                var0 = 0.298016524682663;
            }
        }
    }
    double var1;
    if (input[33] > 0.879971746025428) {
        if (input[17] > 0.9123860550337607) {
            if (input[25] > 1.8012738853503187) {
                var1 = -0.2347184050553106;
            } else {
                if (input[5] > 152.50000000000003) {
                    if (input[17] > 0.9383417431837312) {
                        if (input[1] <= -4214.499999999999) {
                            var1 = 0.12221440664473389;
                        } else {
                            if (input[2] > 3202.5000000000005) {
                                if (input[16] > 0.9248463452124521) {
                                    if (input[9] > 5302.500000000001) {
                                        var1 = 0.14826575352965585;
                                    } else {
                                        var1 = 0.08073571028877242;
                                    }
                                } else {
                                    var1 = 0.14844358667155208;
                                }
                            } else {
                                if (input[1] <= -2438.9999999999995) {
                                    if (input[12] > 1283397.0000000002) {
                                        var1 = 0.14830603174074938;
                                    } else {
                                        var1 = 0.12578547476107652;
                                    }
                                } else {
                                    if (input[10] > 3440.3333333333335) {
                                        var1 = 0.14731062035095385;
                                    } else {
                                        var1 = 0.14809920632240808;
                                    }
                                }
                            }
                        }
                    } else {
                        var1 = 0.10505714883773819;
                    }
                } else {
                    var1 = -0.047853713504349034;
                }
            }
        } else {
            if (input[3] > 4497.000000000001) {
                if (input[42] > 1.0196443859886994) {
                    var1 = -0.1214886385435178;
                } else {
                    if (input[41] > 0.9169514948291252) {
                        var1 = -0.19547447556708641;
                    } else {
                        if (input[3] > 6529.500000000001) {
                            if (input[11] > 78520105.00000001) {
                                var1 = -0.24222977111251487;
                            } else {
                                var1 = -0.2347184050553106;
                            }
                        } else {
                            var1 = -0.24378237688747384;
                        }
                    }
                }
            } else {
                if (input[4] > 6759.500000000001) {
                    var1 = 0.14957042504698775;
                } else {
                    var1 = 0.1256843000313806;
                }
            }
        }
    } else {
        if (input[33] > 0.8688450073222519) {
            var1 = -0.1877057561832738;
        } else {
            var1 = -0.2347184050553106;
        }
    }
    double var2;
    if (input[33] > 0.879971746025428) {
        if (input[17] > 0.9123860550337607) {
            if (input[25] > 1.8012738853503187) {
                var2 = -0.20653444167455928;
            } else {
                if (input[5] > 152.50000000000003) {
                    if (input[1] <= -3778.9999999999995) {
                        if (input[45] > 1475.0833333333337) {
                            var2 = 0.14334326868748687;
                        } else {
                            var2 = 0.07342534444300328;
                        }
                    } else {
                        if (input[2] > 3202.5000000000005) {
                            if (input[2] > 3350.5000000000005) {
                                if (input[12] > 3595144.5000000005) {
                                    var2 = 0.14162572614251887;
                                } else {
                                    if (input[8] > 6588.000000000001) {
                                        var2 = 0.14252603702691005;
                                    } else {
                                        var2 = 0.10651256930072289;
                                    }
                                }
                            } else {
                                var2 = 0.10815519218056374;
                            }
                        } else {
                            if (input[1] <= -2438.9999999999995) {
                                if (input[25] > 1.3663172652620568) {
                                    var2 = 0.11806863934983254;
                                } else {
                                    var2 = 0.14172055440805612;
                                }
                            } else {
                                var2 = 0.1413141435557642;
                            }
                        }
                    }
                } else {
                    var2 = -0.042499785298197174;
                }
            }
        } else {
            if (input[11] > 38666613.00000001) {
                if (input[17] > 0.8425866546147177) {
                    var2 = -0.14174881356797223;
                } else {
                    if (input[3] > 8488.500000000002) {
                        var2 = -0.17230317710388643;
                    } else {
                        var2 = -0.20723100657482202;
                    }
                }
            } else {
                if (input[18] > 1.0197339165762984) {
                    var2 = 0.14329572880851035;
                } else {
                    var2 = 0.07784476269162444;
                }
            }
        }
    } else {
        if (input[8] > 7893.500000000001) {
            var2 = -0.15504321578515323;
        } else {
            if (input[22] > 1.859201032710173) {
                var2 = -0.1914479504708934;
            } else {
                if (input[33] > 0.8688450073222519) {
                    var2 = -0.21831608693037077;
                } else {
                    var2 = -0.20653444167455928;
                }
            }
        }
    }
    double var3;
    if (input[33] > 0.879971746025428) {
        if (input[35] > 0.9888117964002526) {
            if (input[25] > 1.8012738853503187) {
                var3 = -0.18665493291897364;
            } else {
                if (input[35] > 0.9939524348999539) {
                    if (input[44] > 79.40000000000002) {
                        if (input[1] <= -4214.499999999999) {
                            var3 = 0.10922358608720227;
                        } else {
                            if (input[2] > 3202.5000000000005) {
                                if (input[16] > 0.9248463452124521) {
                                    if (input[7] > 23649.000000000004) {
                                        var3 = 0.13659254215977973;
                                    } else {
                                        var3 = 0.06123226231510866;
                                    }
                                } else {
                                    var3 = 0.1364156943685033;
                                }
                            } else {
                                if (input[7] > 597.5000000000001) {
                                    if (input[1] <= -2438.9999999999995) {
                                        if (input[34] > 0.9837658230179348) {
                                            var3 = 0.1363924136584703;
                                        } else {
                                            var3 = 0.11204964468739408;
                                        }
                                    } else {
                                        var3 = 0.13580480131628894;
                                    }
                                } else {
                                    var3 = 0.14810265031321515;
                                }
                            }
                        }
                    } else {
                        var3 = 0.10237920962641672;
                    }
                } else {
                    if (input[44] > 1372.6666666666667) {
                        var3 = 0.12088599930775415;
                    } else {
                        var3 = -0.09375519193290756;
                    }
                }
            }
        } else {
            if (input[11] > 38666613.00000001) {
                if (input[3] > 8488.500000000002) {
                    var3 = -0.13891548171779597;
                } else {
                    if (input[8] > 4009.5000000000005) {
                        var3 = -0.19894581700363012;
                    } else {
                        if (input[8] > 3998.5000000000005) {
                            var3 = -0.17355563008499328;
                        } else {
                            var3 = -0.1873450234527035;
                        }
                    }
                }
            } else {
                if (input[4] > 6547.500000000001) {
                    var3 = 0.13870057615706408;
                } else {
                    var3 = 0.09062765178193528;
                }
            }
        }
    } else {
        if (input[33] > 0.8688450073222519) {
            var3 = -0.14316782103336292;
        } else {
            var3 = -0.18675852842159812;
        }
    }
    double var4;
    if (input[33] > 0.879971746025428) {
        if (input[17] > 0.9123860550337607) {
            if (input[25] > 1.8012738853503187) {
                var4 = -0.17190018366809645;
            } else {
                if (input[7] > 388.00000000000006) {
                    if (input[41] > 0.9656543003487961) {
                        if (input[1] <= -4214.499999999999) {
                            var4 = 0.10362924267140501;
                        } else {
                            if (input[2] > 3202.5000000000005) {
                                if (input[8] > 6471.500000000001) {
                                    var4 = 0.13201365401648832;
                                } else {
                                    if (input[4] > 10611.000000000002) {
                                        var4 = 0.1319299352596965;
                                    } else {
                                        var4 = 0.05280919576203766;
                                    }
                                }
                            } else {
                                if (input[1] <= -2438.9999999999995) {
                                    if (input[12] > 1283397.0000000002) {
                                        var4 = 0.13188876671452412;
                                    } else {
                                        var4 = 0.10574710620766295;
                                    }
                                } else {
                                    if (input[10] > 3440.3333333333335) {
                                        var4 = 0.13049389823327634;
                                    } else {
                                        var4 = 0.13149207675064858;
                                    }
                                }
                            }
                        }
                    } else {
                        var4 = 0.08053875146727033;
                    }
                } else {
                    var4 = -0.06504942674913294;
                }
            }
        } else {
            if (input[3] > 4497.000000000001) {
                if (input[42] > 1.0196443859886994) {
                    var4 = -0.0810045695027985;
                } else {
                    if (input[35] > 0.9833193500095664) {
                        var4 = -0.1377075529066745;
                    } else {
                        if (input[11] > 60573498.00000001) {
                            if (input[3] > 8460.500000000002) {
                                var4 = -0.1784670625491122;
                            } else {
                                var4 = -0.1720552220279458;
                            }
                        } else {
                            var4 = -0.1848525377361844;
                        }
                    }
                }
            } else {
                if (input[24] > 0.6299936292629597) {
                    var4 = 0.10776557397059201;
                } else {
                    var4 = 0.13370912388532977;
                }
            }
        }
    } else {
        if (input[33] > 0.8688450073222519) {
            var4 = -0.12988534674622643;
        } else {
            var4 = -0.17197901238075008;
        }
    }
    double var5;
    if (input[33] > 0.879971746025428) {
        if (input[35] > 0.9888117964002526) {
            if (input[25] > 1.8012738853503187) {
                var5 = -0.16054451493037702;
            } else {
                if (input[35] > 0.9939524348999539) {
                    if (input[44] > 79.40000000000002) {
                        if (input[1] <= -4214.499999999999) {
                            var5 = 0.0984957698641796;
                        } else {
                            if (input[2] > 3202.5000000000005) {
                                if (input[16] > 0.9248463452124521) {
                                    if (input[7] > 22301.000000000004) {
                                        var5 = 0.12817422435611117;
                                    } else {
                                        var5 = 0.044731059049322626;
                                    }
                                } else {
                                    var5 = 0.12795165512248127;
                                }
                            } else {
                                if (input[7] > 597.5000000000001) {
                                    var5 = 0.1271409958706366;
                                } else {
                                    var5 = 0.14059065144382693;
                                }
                            }
                        }
                    } else {
                        var5 = 0.09222082038472246;
                    }
                } else {
                    if (input[15] > 0.5666923352719321) {
                        var5 = 0.11328112808466935;
                    } else {
                        var5 = -0.08604319554260703;
                    }
                }
            }
        } else {
            if (input[11] > 38666613.00000001) {
                if (input[3] > 8488.500000000002) {
                    var5 = -0.11250622357741542;
                } else {
                    if (input[36] > 1.003600442497007) {
                        var5 = -0.17497995093650243;
                    } else {
                        if (input[42] > 1.0151149529977044) {
                            var5 = -0.14099539416890194;
                        } else {
                            var5 = -0.16120897203828669;
                        }
                    }
                }
            } else {
                if (input[2] <= -145.49999999999997) {
                    var5 = 0.08048411582740876;
                } else {
                    var5 = 0.1303697921210655;
                }
            }
        }
    } else {
        if (input[8] > 7893.500000000001) {
            var5 = -0.1106384118811113;
        } else {
            if (input[22] > 1.859201032710173) {
                var5 = -0.14560492436586386;
            } else {
                if (input[33] > 0.8688450073222519) {
                    var5 = -0.17238438246941762;
                } else {
                    var5 = -0.16053347053056188;
                }
            }
        }
    }
    double var6;
    if (input[33] > 0.879971746025428) {
        if (input[35] > 0.9888117964002526) {
            if (input[25] > 1.8012738853503187) {
                var6 = -0.1515645308352549;
            } else {
                if (input[35] > 0.9939524348999539) {
                    if (input[44] > 79.40000000000002) {
                        if (input[1] <= -4214.499999999999) {
                            var6 = 0.09372277926264934;
                        } else {
                            if (input[2] > 3202.5000000000005) {
                                if (input[8] > 6471.500000000001) {
                                    var6 = 0.12487667514892153;
                                } else {
                                    if (input[7] > 25603.500000000004) {
                                        var6 = 0.12464370548969468;
                                    } else {
                                        var6 = 0.04163090572419506;
                                    }
                                }
                            } else {
                                if (input[7] > 597.5000000000001) {
                                    if (input[1] <= -2438.9999999999995) {
                                        if (input[21] > 1.4914032287671204) {
                                            var6 = 0.09495908375438955;
                                        } else {
                                            var6 = 0.12465377142336674;
                                        }
                                    } else {
                                        var6 = 0.12401984561124256;
                                    }
                                } else {
                                    var6 = 0.13549941698451115;
                                }
                            }
                        }
                    } else {
                        var6 = 0.08715453424749864;
                    }
                } else {
                    if (input[44] > 1372.6666666666667) {
                        var6 = 0.11117505253772496;
                    } else {
                        var6 = -0.08129009517957929;
                    }
                }
            }
        } else {
            if (input[11] > 38666613.00000001) {
                if (input[3] > 8488.500000000002) {
                    var6 = -0.10382211034758662;
                } else {
                    if (input[38] > 0.7098960292959766) {
                        if (input[41] > 0.9169514948291252) {
                            var6 = -0.16213496174276565;
                        } else {
                            var6 = -0.1518934281862955;
                        }
                    } else {
                        var6 = -0.13851292422441647;
                    }
                }
            } else {
                if (input[18] > 1.0197339165762984) {
                    var6 = 0.1268077925383642;
                } else {
                    var6 = 0.07247445951373292;
                }
            }
        }
    } else {
        if (input[33] > 0.8688450073222519) {
            var6 = -0.10647956072331588;
        } else {
            var6 = -0.15168254897845318;
        }
    }
    double var7;
    if (input[33] > 0.879971746025428) {
        if (input[35] > 0.9888117964002526) {
            if (input[25] > 1.8012738853503187) {
                var7 = -0.14431262177384446;
            } else {
                if (input[35] > 0.9939524348999539) {
                    if (input[44] > 79.40000000000002) {
                        if (input[1] <= -4214.499999999999) {
                            var7 = 0.0892341617043681;
                        } else {
                            if (input[2] > 3202.5000000000005) {
                                if (input[12] > 5449074.000000001) {
                                    var7 = 0.12205700363372146;
                                } else {
                                    if (input[45] > 489.9446831364125) {
                                        if (input[43] > 541.6333333333334) {
                                            var7 = 0.1228172161004221;
                                        } else {
                                            var7 = 0.026364940176396914;
                                        }
                                    } else {
                                        var7 = 0.122859270323048;
                                    }
                                }
                            } else {
                                if (input[1] <= -2438.9999999999995) {
                                    if (input[12] > 1283397.0000000002) {
                                        var7 = 0.12185585506461122;
                                    } else {
                                        var7 = 0.08997630152144537;
                                    }
                                } else {
                                    var7 = 0.12126152346068403;
                                }
                            }
                        }
                    } else {
                        var7 = 0.08237991048042757;
                    }
                } else {
                    if (input[44] > 1356.5270833333336) {
                        var7 = 0.10735411413198132;
                    } else {
                        var7 = -0.08084718029988452;
                    }
                }
            }
        } else {
            if (input[3] > 5302.500000000001) {
                if (input[18] > 1.0384583781050505) {
                    var7 = -0.08555631093151533;
                } else {
                    if (input[35] > 0.9833193500095664) {
                        var7 = -0.11634384682782024;
                    } else {
                        if (input[2] <= -186.49999999999997) {
                            var7 = -0.1600246743919715;
                        } else {
                            var7 = -0.14482658785481747;
                        }
                    }
                }
            } else {
                if (input[26] > 0.7401193838254173) {
                    var7 = 0.09404509583177662;
                } else {
                    var7 = 0.12376004288349846;
                }
            }
        }
    } else {
        if (input[33] > 0.8688450073222519) {
            var7 = -0.09859975133624904;
        } else {
            var7 = -0.14440936660953504;
        }
    }
    double var8;
    if (input[33] > 0.879971746025428) {
        if (input[17] > 0.9123860550337607) {
            if (input[25] > 1.8012738853503187) {
                var8 = -0.138357771705884;
            } else {
                if (input[7] > 388.00000000000006) {
                    if (input[1] <= -3778.9999999999995) {
                        if (input[46] > 3.767607797911061) {
                            var8 = 0.1225762524761686;
                        } else {
                            var8 = 0.027948349757418996;
                        }
                    } else {
                        if (input[2] > 3202.5000000000005) {
                            if (input[2] > 3350.5000000000005) {
                                if (input[12] > 3595144.5000000005) {
                                    var8 = 0.11948371077684566;
                                } else {
                                    if (input[8] > 6588.000000000001) {
                                        var8 = 0.12049555481697052;
                                    } else {
                                        var8 = 0.07018460006746698;
                                    }
                                }
                            } else {
                                var8 = 0.07392938610252409;
                            }
                        } else {
                            if (input[35] > 0.9939524348999539) {
                                var8 = 0.11849058510477367;
                            } else {
                                var8 = 0.1312708407139901;
                            }
                        }
                    }
                } else {
                    var8 = -0.06824895510244111;
                }
            }
        } else {
            if (input[3] > 4497.000000000001) {
                if (input[42] > 1.0196443859886994) {
                    var8 = -0.05125078263584738;
                } else {
                    if (input[17] > 0.8425866546147177) {
                        var8 = -0.0833242617333251;
                    } else {
                        if (input[2] <= -186.49999999999997) {
                            var8 = -0.15211420926139133;
                        } else {
                            var8 = -0.13884102395777745;
                        }
                    }
                }
            } else {
                if (input[10] > 808.5000000000001) {
                    var8 = 0.08947675737804042;
                } else {
                    var8 = 0.12106893086959597;
                }
            }
        }
    } else {
        if (input[18] > 1.2533500893880565) {
            var8 = -0.0842310417239232;
        } else {
            if (input[22] > 1.8687044900034533) {
                var8 = -0.12109047675072614;
            } else {
                if (input[33] > 0.8688450073222519) {
                    var8 = -0.1496265918097985;
                } else {
                    var8 = -0.13838140691324585;
                }
            }
        }
    }
    double var9;
    if (input[33] > 0.879971746025428) {
        if (input[35] > 0.9888117964002526) {
            if (input[25] > 1.8012738853503187) {
                var9 = -0.1334014515369944;
            } else {
                if (input[35] > 0.9939524348999539) {
                    if (input[49] > 9.02769256906871) {
                        if (input[1] <= -4214.499999999999) {
                            var9 = 0.08140619851363594;
                        } else {
                            if (input[2] > 3202.5000000000005) {
                                if (input[16] > 0.9248463452124521) {
                                    if (input[5] > 9272.500000000002) {
                                        var9 = 0.11768947334157834;
                                    } else {
                                        var9 = 0.009998403985834011;
                                    }
                                } else {
                                    var9 = 0.11744516734744084;
                                }
                            } else {
                                if (input[1] <= -2438.9999999999995) {
                                    if (input[36] > 1.0199207200731073) {
                                        var9 = 0.08015191139721227;
                                    } else {
                                        var9 = 0.11728501566864541;
                                    }
                                } else {
                                    if (input[7] > 597.5000000000001) {
                                        var9 = 0.11654271549560305;
                                    } else {
                                        var9 = 0.12795367334030433;
                                    }
                                }
                            }
                        }
                    } else {
                        var9 = 0.07690915565069184;
                    }
                } else {
                    if (input[44] > 1343.2666666666669) {
                        var9 = 0.10264034747338985;
                    } else {
                        var9 = -0.08629546568241947;
                    }
                }
            }
        } else {
            if (input[11] > 38666613.00000001) {
                if (input[3] > 8488.500000000002) {
                    var9 = -0.07722076489642732;
                } else {
                    if (input[38] > 0.7098960292959766) {
                        if (input[36] > 1.0035182050996692) {
                            var9 = -0.1470193611092141;
                        } else {
                            var9 = -0.13378980006859686;
                        }
                    } else {
                        var9 = -0.11722993428611561;
                    }
                }
            } else {
                if (input[46] > 3.8185267412330695) {
                    var9 = 0.05613346167004908;
                } else {
                    var9 = 0.12021838874897701;
                }
            }
        }
    } else {
        if (input[33] > 0.8688450073222519) {
            var9 = -0.08232101671579785;
        } else {
            var9 = -0.13352093032513454;
        }
    }
    double var10;
    if (input[33] > 0.879971746025428) {
        if (input[35] > 0.9888117964002526) {
            if (input[25] > 1.8012738853503187) {
                var10 = -0.12923006770335507;
            } else {
                if (input[35] > 0.9939524348999539) {
                    if (input[1] <= -4214.499999999999) {
                        var10 = 0.07745490547609295;
                    } else {
                        if (input[4] > 141.50000000000003) {
                            if (input[2] > 3202.5000000000005) {
                                if (input[16] > 0.9248463452124521) {
                                    if (input[6] > 10447.500000000002) {
                                        var10 = 0.11577737630919614;
                                    } else {
                                        var10 = 0.0029103014024112212;
                                    }
                                } else {
                                    var10 = 0.11551395441488013;
                                }
                            } else {
                                if (input[1] <= -2438.9999999999995) {
                                    if (input[12] > 1283397.0000000002) {
                                        var10 = 0.11542686891250185;
                                    } else {
                                        var10 = 0.07586138674456372;
                                    }
                                } else {
                                    if (input[10] > 3440.3333333333335) {
                                        var10 = 0.11346936146432107;
                                    } else {
                                        var10 = 0.11503172787149628;
                                    }
                                }
                            }
                        } else {
                            var10 = 0.0699921741653161;
                        }
                    }
                } else {
                    if (input[44] > 1343.2666666666669) {
                        var10 = 0.09818190500914573;
                    } else {
                        var10 = -0.0768270002598592;
                    }
                }
            }
        } else {
            if (input[11] > 38666613.00000001) {
                if (input[11] > 79801295.00000001) {
                    var10 = -0.06925884527740721;
                } else {
                    if (input[38] > 0.7098960292959766) {
                        if (input[36] > 1.0035182050996692) {
                            var10 = -0.14118127122718638;
                        } else {
                            var10 = -0.12962853466462898;
                        }
                    } else {
                        var10 = -0.10836010540443813;
                    }
                }
            } else {
                if (input[7] > 5339.000000000001) {
                    var10 = 0.04778105476240841;
                } else {
                    var10 = 0.11704751757885429;
                }
            }
        }
    } else {
        if (input[33] > 0.8688450073222519) {
            var10 = -0.07669744490706237;
        } else {
            var10 = -0.1293316177604174;
        }
    }
    double var11;
    if (input[33] > 0.879971746025428) {
        if (input[17] > 0.9123860550337607) {
            if (input[25] > 1.8012738853503187) {
                var11 = -0.12568655239896648;
            } else {
                if (input[7] > 388.00000000000006) {
                    if (input[1] <= -3778.9999999999995) {
                        if (input[45] > 1475.0833333333337) {
                            var11 = 0.11728484798007054;
                        } else {
                            var11 = 0.008026447388194382;
                        }
                    } else {
                        if (input[2] > 3202.5000000000005) {
                            if (input[2] > 3350.5000000000005) {
                                if (input[12] > 3595144.5000000005) {
                                    var11 = 0.11389458217805844;
                                } else {
                                    if (input[8] > 6588.000000000001) {
                                        var11 = 0.115317734492957;
                                    } else {
                                        var11 = 0.05496233413448283;
                                    }
                                }
                            } else {
                                var11 = 0.06007096826249325;
                            }
                        } else {
                            if (input[35] > 0.9939524348999539) {
                                if (input[1] <= -2438.9999999999995) {
                                    if (input[25] > 1.3663172652620568) {
                                        var11 = 0.07047627201493885;
                                    } else {
                                        var11 = 0.11375281022526379;
                                    }
                                } else {
                                    var11 = 0.11304667881069425;
                                }
                            } else {
                                var11 = 0.12839982693229615;
                            }
                        }
                    }
                } else {
                    var11 = -0.0651937014344554;
                }
            }
        } else {
            if (input[11] > 55938922.00000001) {
                if (input[11] > 81457173.50000001) {
                    var11 = -0.04066510733280773;
                } else {
                    var11 = -0.126525333247887;
                }
            } else {
                if (input[18] > 1.0173242490212417) {
                    if (input[6] > 4469.500000000001) {
                        var11 = 0.1452234634405419;
                    } else {
                        var11 = 0.11463278672667705;
                    }
                } else {
                    var11 = -0.01101348629636421;
                }
            }
        }
    } else {
        if (input[8] > 7893.500000000001) {
            var11 = -0.059821616837278914;
        } else {
            if (input[22] > 1.859201032710173) {
                var11 = -0.10443058239213537;
            } else {
                var11 = -0.12597967510071525;
            }
        }
    }
    double var12;
    if (input[33] > 0.879971746025428) {
        if (input[35] > 0.9923330726943952) {
            if (input[25] > 1.8012738853503187) {
                var12 = -0.12265274292096835;
            } else {
                if (input[6] > 244.50000000000003) {
                    if (input[1] <= -4214.499999999999) {
                        var12 = 0.0702975660122836;
                    } else {
                        if (input[2] > 3202.5000000000005) {
                            if (input[8] > 6471.500000000001) {
                                var12 = 0.11275163884058173;
                            } else {
                                if (input[18] > 1.1049531200080678) {
                                    var12 = -0.031549501475395675;
                                } else {
                                    var12 = 0.112976952474826;
                                }
                            }
                        } else {
                            if (input[1] <= -2438.9999999999995) {
                                if (input[32] > 0.9034741148930504) {
                                    var12 = 0.11250596120264969;
                                } else {
                                    var12 = 0.06409721987287054;
                                }
                            } else {
                                var12 = 0.11163096016647266;
                            }
                        }
                    }
                } else {
                    var12 = -0.000482840967588886;
                }
            }
        } else {
            if (input[11] > 55938922.00000001) {
                if (input[11] > 84527443.50000001) {
                    var12 = 0.005684695054477508;
                } else {
                    if (input[3] > 6529.500000000001) {
                        if (input[2] <= -145.49999999999997) {
                            var12 = -0.09359305321332596;
                        } else {
                            if (input[43] > 493.5833333333334) {
                                if (input[10] > 2719.833333333334) {
                                    var12 = -0.12313051349263288;
                                } else {
                                    var12 = -0.11552884921916073;
                                }
                            } else {
                                var12 = -0.13498714162940176;
                            }
                        }
                    } else {
                        var12 = -0.14831266643268107;
                    }
                }
            } else {
                if (input[18] > 1.012241321364846) {
                    if (input[20] > 0.5260991189674362) {
                        var12 = 0.14586066633220623;
                    } else {
                        var12 = 0.11318347194358956;
                    }
                } else {
                    var12 = -0.007276072446316776;
                }
            }
        }
    } else {
        if (input[33] > 0.8688450073222519) {
            var12 = -0.06401575561396118;
        } else {
            var12 = -0.1227686834908305;
        }
    }
    double var13;
    if (input[33] > 0.879971746025428) {
        if (input[35] > 0.9939524348999539) {
            if (input[25] > 1.8012738853503187) {
                var13 = -0.12003796211953095;
            } else {
                if (input[1] <= -3778.9999999999995) {
                    if (input[5] > 8245.000000000002) {
                        var13 = 0.11554729431393372;
                    } else {
                        var13 = 0.03126863035624065;
                    }
                } else {
                    if (input[34] > 1.0012317445732353) {
                        if (input[10] > 4000.0000000000005) {
                            var13 = -0.03405927325680022;
                        } else {
                            var13 = 0.11083039642629973;
                        }
                    } else {
                        if (input[36] > 1.0611283536492024) {
                            var13 = 0.1334992816209094;
                        } else {
                            if (input[2] > 4511.500000000001) {
                                if (input[10] > 3973.1666666666674) {
                                    var13 = 0.11183494280144635;
                                } else {
                                    var13 = 0.06281694802421615;
                                }
                            } else {
                                if (input[1] <= -2438.9999999999995) {
                                    if (input[32] > 0.9030999986103269) {
                                        var13 = 0.11106471443519866;
                                    } else {
                                        var13 = 0.05963925330249829;
                                    }
                                } else {
                                    var13 = 0.11035913212812874;
                                }
                            }
                        }
                    }
                }
            }
        } else {
            if (input[11] > 55938922.00000001) {
                if (input[3] > 8651.500000000002) {
                    var13 = 0.057434117753339266;
                } else {
                    if (input[8] > 4100.500000000001) {
                        var13 = -0.04878435379109959;
                    } else {
                        if (input[1] <= -1992.9999999999998) {
                            var13 = -0.1427184072054281;
                        } else {
                            var13 = -0.12073128566025162;
                        }
                    }
                }
            } else {
                if (input[40] > 1.083916672398232) {
                    if (input[5] > 4033.5000000000005) {
                        var13 = 0.13695442895479812;
                    } else {
                        var13 = 0.11328165861892606;
                    }
                } else {
                    var13 = -0.05623737206297569;
                }
            }
        }
    } else {
        if (input[33] > 0.8688450073222519) {
            var13 = -0.0595955958902683;
        } else {
            var13 = -0.12013878417495077;
        }
    }
    double var14;
    if (input[33] > 0.879971746025428) {
        if (input[17] > 0.9123860550337607) {
            if (input[25] > 1.8012738853503187) {
                var14 = -0.1177714001677505;
            } else {
                if (input[7] > 388.00000000000006) {
                    if (input[1] <= -3447.4999999999995) {
                        if (input[0] > 12.500000000000002) {
                            var14 = -0.0278069330655671;
                        } else {
                            var14 = 0.11383309785407872;
                        }
                    } else {
                        if (input[2] > 3202.5000000000005) {
                            if (input[16] > 1.008728153138953) {
                                var14 = -0.03575361402821325;
                            } else {
                                if (input[12] > 1002187.0000000001) {
                                    var14 = 0.11048367315034167;
                                } else {
                                    var14 = 0.0567709700291163;
                                }
                            }
                        } else {
                            if (input[1] <= -2438.9999999999995) {
                                if (input[25] > 1.3640763997906857) {
                                    var14 = 0.05788905844757108;
                                } else {
                                    var14 = 0.11089488365547101;
                                }
                            } else {
                                if (input[35] > 0.9939524348999539) {
                                    var14 = 0.10911978629465163;
                                } else {
                                    var14 = 0.12292927031315562;
                                }
                            }
                        }
                    }
                } else {
                    var14 = -0.06005851174391505;
                }
            }
        } else {
            if (input[8] > 5222.000000000001) {
                var14 = 0.1116722851071018;
            } else {
                if (input[18] > 1.046435825926795) {
                    var14 = -0.002109129115230378;
                } else {
                    if (input[17] > 0.8425866546147177) {
                        var14 = -0.059230954599555345;
                    } else {
                        if (input[4] > 4723.000000000001) {
                            var14 = -0.11787957885949388;
                        } else {
                            var14 = -0.1337698622664589;
                        }
                    }
                }
            }
        }
    } else {
        if (input[8] > 7893.500000000001) {
            var14 = -0.04086348074383992;
        } else {
            if (input[22] > 1.859201032710173) {
                var14 = -0.09121483652844725;
            } else {
                if (input[33] > 0.8688450073222519) {
                    var14 = -0.12839720541494323;
                } else {
                    var14 = -0.11776604470490462;
                }
            }
        }
    }
    double var15;
    if (input[33] > 0.879971746025428) {
        if (input[35] > 0.9939524348999539) {
            if (input[25] > 1.8012738853503187) {
                var15 = -0.1157969762653947;
            } else {
                if (input[34] > 1.0012317445732353) {
                    if (input[10] > 4000.0000000000005) {
                        var15 = -0.03416954613154865;
                    } else {
                        var15 = 0.10894828759632041;
                    }
                } else {
                    if (input[1] <= -3447.4999999999995) {
                        if (input[6] > 9132.000000000002) {
                            var15 = 0.1123581342665154;
                        } else {
                            var15 = 0.009834183603028127;
                        }
                    } else {
                        if (input[2] > 4511.500000000001) {
                            if (input[46] > 2.8361443025709794) {
                                var15 = 0.1091467151615472;
                            } else {
                                var15 = 0.05195420772310625;
                            }
                        } else {
                            if (input[1] <= -2438.9999999999995) {
                                if (input[12] > 1795782.0000000002) {
                                    var15 = 0.1091308631035441;
                                } else {
                                    var15 = 0.04995146531416678;
                                }
                            } else {
                                if (input[4] > 141.50000000000003) {
                                    var15 = 0.10810684151393256;
                                } else {
                                    var15 = 0.12782956880665292;
                                }
                            }
                        }
                    }
                }
            }
        } else {
            if (input[11] > 55938922.00000001) {
                if (input[3] > 8678.500000000002) {
                    var15 = 0.06706669798022662;
                } else {
                    if (input[8] > 4100.500000000001) {
                        var15 = -0.04612399773921655;
                    } else {
                        if (input[17] > 0.8425866546147177) {
                            var15 = -0.14525174677573288;
                        } else {
                            var15 = -0.11637516779771172;
                        }
                    }
                }
            } else {
                if (input[16] > 1.1490572362540463) {
                    if (input[19] > 0.0844855101252867) {
                        var15 = 0.14132672940567098;
                    } else {
                        var15 = 0.11060593172192655;
                    }
                } else {
                    var15 = -0.07951899140377824;
                }
            }
        }
    } else {
        if (input[33] > 0.8688450073222519) {
            var15 = -0.047929513153749374;
        } else {
            var15 = -0.11591926001428735;
        }
    }
    double var16;
    if (input[33] > 0.879971746025428) {
        if (input[35] > 0.9939524348999539) {
            if (input[25] > 1.8012738853503187) {
                var16 = -0.11406967961291217;
            } else {
                if (input[49] > 9.522341334530731) {
                    if (input[1] <= -3778.9999999999995) {
                        if (input[6] > 9548.500000000002) {
                            var16 = 0.11189338284971095;
                        } else {
                            var16 = 0.01238758112001194;
                        }
                    } else {
                        if (input[2] > 3202.5000000000005) {
                            if (input[34] > 1.0008322155234115) {
                                var16 = -0.013522503939650966;
                            } else {
                                if (input[12] > 1002187.0000000001) {
                                    var16 = 0.10846160891912145;
                                } else {
                                    var16 = 0.047706618717445345;
                                }
                            }
                        } else {
                            if (input[1] <= -2438.9999999999995) {
                                if (input[1] <= -2593.9999999999995) {
                                    var16 = 0.10848068471789991;
                                } else {
                                    var16 = 0.04686243078963856;
                                }
                            } else {
                                if (input[6] > 286.50000000000006) {
                                    var16 = 0.10710658549874122;
                                } else {
                                    var16 = 0.12004764474192452;
                                }
                            }
                        }
                    }
                } else {
                    var16 = 0.05840455989206535;
                }
            }
        } else {
            if (input[11] > 55938922.00000001) {
                if (input[3] > 8787.000000000002) {
                    var16 = 0.08543421094971015;
                } else {
                    if (input[8] > 4100.500000000001) {
                        var16 = -0.041256672558647595;
                    } else {
                        if (input[17] > 0.8425866546147177) {
                            var16 = -0.14270637098945352;
                        } else {
                            var16 = -0.11465423567465408;
                        }
                    }
                }
            } else {
                if (input[16] > 1.1490572362540463) {
                    if (input[19] > 0.0844855101252867) {
                        var16 = 0.13765279729964117;
                    } else {
                        var16 = 0.10950120947553293;
                    }
                } else {
                    var16 = -0.07102411215653996;
                }
            }
        }
    } else {
        if (input[33] > 0.8688450073222519) {
            var16 = -0.04441349631415846;
        } else {
            var16 = -0.1141775455882451;
        }
    }
    double var17;
    if (input[33] > 0.879971746025428) {
        if (input[35] > 0.9939524348999539) {
            if (input[25] > 1.8012738853503187) {
                var17 = -0.1125529063918809;
            } else {
                if (input[44] > 87.08333333333336) {
                    if (input[1] <= -3447.4999999999995) {
                        if (input[0] > 12.500000000000002) {
                            var17 = -0.004968487009937834;
                        } else {
                            var17 = 0.11109465129409951;
                        }
                    } else {
                        if (input[2] > 3202.5000000000005) {
                            if (input[16] > 1.008728153138953) {
                                var17 = -0.020495826937078854;
                            } else {
                                if (input[12] > 967688.5000000001) {
                                    var17 = 0.10762982667846616;
                                } else {
                                    var17 = 0.041440511216748355;
                                }
                            }
                        } else {
                            if (input[1] <= -2438.9999999999995) {
                                if (input[16] > 0.8757905637794888) {
                                    var17 = 0.10737918915664713;
                                } else {
                                    var17 = 0.03993946905798746;
                                }
                            } else {
                                var17 = 0.10638476800179227;
                            }
                        }
                    }
                } else {
                    var17 = 0.05126755862466301;
                }
            }
        } else {
            if (input[8] > 4100.500000000001) {
                if (input[1] > 711.5000000000001) {
                    var17 = -0.13377055077717626;
                } else {
                    if (input[0] > 16.500000000000004) {
                        var17 = 0.006706674898664374;
                    } else {
                        var17 = 0.11738084814772132;
                    }
                }
            } else {
                if (input[36] > 1.0045967091101515) {
                    var17 = 0.02782485530051053;
                } else {
                    if (input[17] > 0.8425866546147177) {
                        var17 = -0.06247881110935219;
                    } else {
                        if (input[7] > 8151.000000000001) {
                            var17 = -0.11260621069076016;
                        } else {
                            var17 = -0.12656905599962587;
                        }
                    }
                }
            }
        }
    } else {
        if (input[18] > 1.2533500893880565) {
            var17 = -0.0221185503355915;
        } else {
            if (input[22] > 1.8687044900034533) {
                var17 = -0.07936006605835076;
            } else {
                var17 = -0.11291620254784246;
            }
        }
    }
    double var18;
    if (input[33] > 0.879971746025428) {
        if (input[35] > 0.9939524348999539) {
            if (input[25] > 1.8012738853503187) {
                var18 = -0.11121664709588304;
            } else {
                if (input[44] > 69.50000000000001) {
                    if (input[1] <= -3778.9999999999995) {
                        if (input[0] > 6.500000000000001) {
                            var18 = -0.0029913129634412026;
                        } else {
                            var18 = 0.11056712328982193;
                        }
                    } else {
                        if (input[2] > 3202.5000000000005) {
                            if (input[34] > 1.0012317445732353) {
                                var18 = -0.03791571898306048;
                            } else {
                                if (input[12] > 893863.0000000001) {
                                    var18 = 0.10693607360329814;
                                } else {
                                    var18 = 0.02786086910630414;
                                }
                            }
                        } else {
                            if (input[1] <= -2438.9999999999995) {
                                if (input[23] > 1.4846980702980332) {
                                    var18 = 0.025918198628196523;
                                } else {
                                    var18 = 0.10679019143606645;
                                }
                            } else {
                                if (input[5] > 204.00000000000003) {
                                    var18 = 0.10550773994225215;
                                } else {
                                    var18 = 0.11765887582752786;
                                }
                            }
                        }
                    }
                } else {
                    var18 = 0.01514321428511465;
                }
            }
        } else {
            if (input[11] > 55938922.00000001) {
                if (input[3] > 8787.000000000002) {
                    var18 = 0.08022089659833355;
                } else {
                    if (input[8] > 4100.500000000001) {
                        var18 = -0.03565633975483578;
                    } else {
                        if (input[17] > 0.8425866546147177) {
                            var18 = -0.13966833541861176;
                        } else {
                            var18 = -0.11174517009542871;
                        }
                    }
                }
            } else {
                if (input[16] > 1.1490572362540463) {
                    if (input[25] > 0.1228546659699186) {
                        var18 = 0.1364034269416507;
                    } else {
                        var18 = 0.10768822902024476;
                    }
                } else {
                    var18 = -0.06374188388578214;
                }
            }
        }
    } else {
        if (input[33] > 0.8688450073222519) {
            var18 = -0.03432554877055437;
        } else {
            var18 = -0.11133711992145467;
        }
    }
    double var19;
    if (input[33] > 0.8688450073222519) {
        if (input[35] > 0.9923330726943952) {
            if (input[25] > 1.8012738853503187) {
                var19 = -0.11018819318440297;
            } else {
                if (input[6] > 116.50000000000001) {
                    if (input[1] <= -4214.499999999999) {
                        var19 = 0.0423519850993139;
                    } else {
                        if (input[14] > 0.357278407980863) {
                            if (input[32] > 0.834203948255878) {
                                if (input[49] > 10.240847755594482) {
                                    if (input[2] > 3202.5000000000005) {
                                        if (input[34] > 1.0012317445732353) {
                                            var19 = -0.03327788887781208;
                                        } else {
                                            if (input[12] > 967688.5000000001) {
                                                var19 = 0.10629026380755272;
                                            } else {
                                                var19 = 0.032515364141574465;
                                            }
                                        }
                                    } else {
                                        if (input[36] > 1.0251300722821826) {
                                            if (input[18] > 1.2475236216718575) {
                                                var19 = 0.1057269229603139;
                                            } else {
                                                var19 = 0.02440823956669701;
                                            }
                                        } else {
                                            var19 = 0.10495207852118056;
                                        }
                                    }
                                } else {
                                    var19 = 0.15372239541828228;
                                }
                            } else {
                                var19 = 0.04495377176101527;
                            }
                        } else {
                            if (input[47] > 2.990223263229479) {
                                var19 = 0.22593303202151305;
                            } else {
                                var19 = 0.10587574860563449;
                            }
                        }
                    }
                } else {
                    var19 = -0.18673236731857631;
                }
            }
        } else {
            if (input[11] > 29157905.500000004) {
                if (input[11] > 84527443.50000001) {
                    var19 = 0.0173629867390722;
                } else {
                    if (input[11] > 55938922.00000001) {
                        if (input[40] > 1.0404150990410985) {
                            if (input[34] > 1.012471768734397) {
                                var19 = -0.1110613484814854;
                            } else {
                                var19 = -0.04912320817330911;
                            }
                        } else {
                            var19 = -0.15808075351706177;
                        }
                    } else {
                        var19 = -0.027370524439354872;
                    }
                }
            } else {
                var19 = 0.10875210442129818;
            }
        }
    } else {
        var19 = -0.11014320477500579;
    }
    double var20;
    if (input[33] > 0.8688450073222519) {
        if (input[35] > 0.9923330726943952) {
            if (input[25] > 1.8012738853503187) {
                var20 = -0.1091280498289517;
            } else {
                if (input[6] > 116.50000000000001) {
                    if (input[1] <= -4214.499999999999) {
                        var20 = 0.039499896666538525;
                    } else {
                        if (input[14] > 0.357278407980863) {
                            if (input[32] > 0.8318259496887845) {
                                if (input[44] > 87.08333333333336) {
                                    if (input[2] > 3202.5000000000005) {
                                        if (input[34] > 1.0012317445732353) {
                                            var20 = -0.02930777370711697;
                                        } else {
                                            if (input[12] > 868733.0000000001) {
                                                var20 = 0.10568534253339797;
                                            } else {
                                                var20 = 0.006514742683533971;
                                            }
                                        }
                                    } else {
                                        if (input[42] > 1.0834618100616435) {
                                            if (input[17] > 1.2000831140047101) {
                                                if (input[1] <= -2406.4999999999995) {
                                                    var20 = 0.051242513026078886;
                                                } else {
                                                    var20 = 0.10414756858716079;
                                                }
                                            } else {
                                                var20 = 0.03377478070506256;
                                            }
                                        } else {
                                            var20 = 0.10524085857824113;
                                        }
                                    }
                                } else {
                                    var20 = 0.1655710729993121;
                                }
                            } else {
                                var20 = 0.02043116161017496;
                            }
                        } else {
                            if (input[46] > 2.482986125922426) {
                                var20 = 0.22606944665231143;
                            } else {
                                var20 = 0.1054938621607408;
                            }
                        }
                    }
                } else {
                    var20 = -0.17626468354239982;
                }
            }
        } else {
            if (input[11] > 29157905.500000004) {
                if (input[11] > 92744508.50000001) {
                    var20 = 0.0634722230602519;
                } else {
                    if (input[35] > 0.9888117964002526) {
                        var20 = -0.010658430777365972;
                    } else {
                        if (input[11] > 57060411.00000001) {
                            var20 = -0.11014087515079843;
                        } else {
                            var20 = -0.06587100016721208;
                        }
                    }
                }
            } else {
                var20 = 0.10789776587966078;
            }
        }
    } else {
        var20 = -0.10908581895017;
    }
    double var21;
    if (input[33] > 0.8688450073222519) {
        if (input[35] > 0.9923330726943952) {
            if (input[25] > 1.8012738853503187) {
                var21 = -0.10818672250320703;
            } else {
                if (input[6] > 116.50000000000001) {
                    if (input[1] <= -4214.499999999999) {
                        var21 = 0.03676258685966221;
                    } else {
                        if (input[14] > 0.357278407980863) {
                            if (input[32] > 0.8290116852243247) {
                                if (input[49] > 6.8189922917631565) {
                                    if (input[2] > 3202.5000000000005) {
                                        if (input[34] > 1.0012317445732353) {
                                            var21 = -0.02588550167100962;
                                        } else {
                                            if (input[12] > 868733.0000000001) {
                                                var21 = 0.10511811380660457;
                                            } else {
                                                var21 = 0.005896435152823025;
                                            }
                                        }
                                    } else {
                                        if (input[42] > 1.0834618100616435) {
                                            if (input[18] > 1.175626844648241) {
                                                var21 = 0.10006293973652397;
                                            } else {
                                                var21 = 0.023540603150646877;
                                            }
                                        } else {
                                            var21 = 0.10472227471394449;
                                        }
                                    }
                                } else {
                                    var21 = 0.22188189963436358;
                                }
                            } else {
                                var21 = 0.000937598390880351;
                            }
                        } else {
                            if (input[46] > 2.577599056778382) {
                                var21 = 0.22917921019911036;
                            } else {
                                var21 = 0.10488788251559078;
                            }
                        }
                    }
                } else {
                    var21 = -0.16742236060215276;
                }
            }
        } else {
            if (input[11] > 29157905.500000004) {
                if (input[35] > 0.9812262840901261) {
                    if (input[47] > 3.4736902411133843) {
                        var21 = 0.09534439767231417;
                    } else {
                        if (input[2] > 2582.0000000000005) {
                            var21 = -0.09845113868719599;
                        } else {
                            var21 = -0.15105533654802983;
                        }
                    }
                } else {
                    if (input[15] > 0.678277117229807) {
                        var21 = -0.0654938270533582;
                    } else {
                        var21 = -0.1107639858189214;
                    }
                }
            } else {
                var21 = 0.10713005527673236;
            }
        }
    } else {
        var21 = -0.10814723530149101;
    }
    double var22;
    if (input[33] > 0.8688450073222519) {
        if (input[35] > 0.9923330726943952) {
            if (input[25] > 1.8012738853503187) {
                var22 = -0.10734922444519848;
            } else {
                if (input[6] > 116.50000000000001) {
                    if (input[1] <= -4214.499999999999) {
                        var22 = 0.03414415111606735;
                    } else {
                        if (input[14] > 0.357278407980863) {
                            if (input[32] > 0.8290116852243247) {
                                if (input[49] > 7.088701506820712) {
                                    if (input[2] > 3202.5000000000005) {
                                        if (input[34] > 1.0012317445732353) {
                                            var22 = -0.022918256886098783;
                                        } else {
                                            if (input[12] > 854586.0000000001) {
                                                var22 = 0.10462330449066096;
                                            } else {
                                                var22 = -0.0014335531052811106;
                                            }
                                        }
                                    } else {
                                        if (input[42] > 1.0834618100616435) {
                                            if (input[41] > 1.0945653977816074) {
                                                var22 = 0.09901032542351443;
                                            } else {
                                                var22 = 0.015893249070528043;
                                            }
                                        } else {
                                            var22 = 0.1042555804383155;
                                        }
                                    }
                                } else {
                                    var22 = 0.19580485762025968;
                                }
                            } else {
                                var22 = 0.0008439031286350345;
                            }
                        } else {
                            if (input[46] > 2.7811951531209806) {
                                var22 = 0.2207117632102046;
                            } else {
                                var22 = 0.10436959903703158;
                            }
                        }
                    }
                } else {
                    var22 = -0.15983731654962105;
                }
            }
        } else {
            if (input[11] > 29157905.500000004) {
                if (input[35] > 0.9812262840901261) {
                    if (input[47] > 3.4736902411133843) {
                        var22 = 0.08728438244985201;
                    } else {
                        if (input[34] > 1.013310311816645) {
                            var22 = -0.10119221795567711;
                        } else {
                            var22 = -0.14230970535487633;
                        }
                    }
                } else {
                    if (input[15] > 0.678277117229807) {
                        var22 = -0.06097502847419011;
                    } else {
                        var22 = -0.10973966834226277;
                    }
                }
            } else {
                var22 = 0.10643941004873608;
            }
        }
    } else {
        var22 = -0.10731243855942214;
    }
    double var23;
    if (input[33] > 0.8688450073222519) {
        if (input[35] > 0.9923330726943952) {
            if (input[25] > 1.8012738853503187) {
                var23 = -0.10660280527312911;
            } else {
                if (input[6] > 116.50000000000001) {
                    if (input[1] <= -4214.499999999999) {
                        var23 = 0.03164791807400136;
                    } else {
                        if (input[32] > 0.8290116852243247) {
                            if (input[44] > 40.50000000000001) {
                                if (input[2] > 3202.5000000000005) {
                                    if (input[34] > 1.0012317445732353) {
                                        var23 = -0.020332927488728617;
                                    } else {
                                        if (input[12] > 835725.0000000001) {
                                            var23 = 0.10420007825788075;
                                        } else {
                                            var23 = -0.013086964557923518;
                                        }
                                    }
                                } else {
                                    if (input[24] > 1.533370247323736) {
                                        var23 = 0.1567833218726619;
                                    } else {
                                        if (input[42] > 1.0834618100616435) {
                                            if (input[36] > 1.0182715628268137) {
                                                if (input[1] <= -2365.4999999999995) {
                                                    var23 = 0.04166718392046778;
                                                } else {
                                                    if (input[0] > 0.000000000000000000000000000000000010000000180025095) {
                                                        var23 = 0.10402051381948887;
                                                    } else {
                                                        var23 = 0.07911836203195488;
                                                    }
                                                }
                                            } else {
                                                var23 = -0.006299508339682585;
                                            }
                                        } else {
                                            var23 = 0.10383744842047554;
                                        }
                                    }
                                }
                            } else {
                                var23 = 0.2216742790254047;
                            }
                        } else {
                            var23 = 0.04142104259405767;
                        }
                    }
                } else {
                    var23 = -0.15325633271624017;
                }
            }
        } else {
            if (input[11] > 29157905.500000004) {
                if (input[11] > 96864366.50000001) {
                    var23 = 0.08405726601563368;
                } else {
                    if (input[35] > 0.9888117964002526) {
                        var23 = -0.011166222583843982;
                    } else {
                        if (input[11] > 53976684.50000001) {
                            var23 = -0.10765777205430785;
                        } else {
                            var23 = -0.026796305551203378;
                        }
                    }
                }
            } else {
                var23 = 0.10581751026212796;
            }
        }
    } else {
        var23 = -0.10656862133206851;
    }
    double var24;
    if (input[18] > 0.9978855607379279) {
        if (input[6] > 116.50000000000001) {
            if (input[25] > 1.7029411764705884) {
                var24 = -0.1058556956393927;
            } else {
                if (input[17] > 0.8359637536496053) {
                    if (input[34] > 1.0141707927984844) {
                        var24 = 0.03260991330941657;
                    } else {
                        if (input[1] <= -4214.499999999999) {
                            var24 = 0.029276303631574886;
                        } else {
                            if (input[32] > 0.8290116852243247) {
                                if (input[44] > 40.50000000000001) {
                                    if (input[43] > 266.18750000000006) {
                                        if (input[12] > 10675009.000000002) {
                                            var24 = 0.12062528807560065;
                                        } else {
                                            var24 = 0.1034524891561107;
                                        }
                                    } else {
                                        if (input[45] > 441.16071428571433) {
                                            if (input[23] > 1.3081134519639706) {
                                                if (input[45] > 489.9446831364125) {
                                                    var24 = 0.10341442235141943;
                                                } else {
                                                    var24 = -0.0448534226445747;
                                                }
                                            } else {
                                                var24 = -0.27468583088231735;
                                            }
                                        } else {
                                            if (input[46] > 5.775227089775435) {
                                                var24 = 0.05321433682817858;
                                            } else {
                                                if (input[46] > 4.278450031888616) {
                                                    var24 = 0.15997613156370435;
                                                } else {
                                                    var24 = 0.10390306537699259;
                                                }
                                            }
                                        }
                                    }
                                } else {
                                    var24 = 0.20252096195741262;
                                }
                            } else {
                                var24 = 0.03011612090154575;
                            }
                        }
                    }
                } else {
                    if (input[8] > 3785.5000000000005) {
                        var24 = 0.11676195163842802;
                    } else {
                        var24 = -0.10724043087843693;
                    }
                }
            }
        } else {
            if (input[32] > 0.8769930815770132) {
                var24 = -0.15511443908241884;
            } else {
                var24 = -0.10622435442078254;
            }
        }
    } else {
        if (input[15] > 0.8527017354438569) {
            var24 = 0.07992377057827992;
        } else {
            if (input[18] > 0.9907822230516866) {
                var24 = -0.13807603758775316;
            } else {
                var24 = -0.10621226871303585;
            }
        }
    }
    double var25;
    if (input[18] > 0.9978855607379279) {
        if (input[6] > 116.50000000000001) {
            if (input[25] > 1.7029411764705884) {
                var25 = -0.10526756523381789;
            } else {
                if (input[17] > 0.8359637536496053) {
                    if (input[34] > 1.0141707927984844) {
                        var25 = 0.02955067202395792;
                    } else {
                        if (input[1] <= -4214.499999999999) {
                            var25 = 0.027030743897582768;
                        } else {
                            if (input[32] > 0.8290116852243247) {
                                if (input[44] > 40.50000000000001) {
                                    if (input[43] > 266.18750000000006) {
                                        var25 = 0.10379982337235046;
                                    } else {
                                        if (input[45] > 441.16071428571433) {
                                            if (input[23] > 1.3081134519639706) {
                                                if (input[1] <= -738.9999999999999) {
                                                    var25 = -0.047548025243422665;
                                                } else {
                                                    var25 = 0.10312760936034643;
                                                }
                                            } else {
                                                var25 = -0.20439511991121018;
                                            }
                                        } else {
                                            if (input[46] > 5.775227089775435) {
                                                var25 = 0.049563551728626865;
                                            } else {
                                                if (input[46] > 4.278450031888616) {
                                                    var25 = 0.15584337403354775;
                                                } else {
                                                    var25 = 0.1035279103785173;
                                                }
                                            }
                                        }
                                    }
                                } else {
                                    var25 = 0.18673122578451443;
                                }
                            } else {
                                var25 = 0.027105112583822227;
                            }
                        }
                    }
                } else {
                    if (input[8] > 3785.5000000000005) {
                        var25 = 0.11598715707410351;
                    } else {
                        var25 = -0.10652844073093429;
                    }
                }
            }
        } else {
            if (input[32] > 0.8769930815770132) {
                var25 = -0.14840535442649969;
            } else {
                var25 = -0.10560019407081032;
            }
        }
    } else {
        if (input[15] > 0.8527017354438569) {
            var25 = 0.07633358326898897;
        } else {
            if (input[18] > 0.9907822230516866) {
                var25 = -0.13341081672650135;
            } else {
                if (input[0] > 27.500000000000004) {
                    var25 = -0.08195554583966713;
                } else {
                    var25 = -0.10615469073403008;
                }
            }
        }
    }
    double var26;
    if (input[33] > 0.8688450073222519) {
        if (input[35] > 0.9923330726943952) {
            if (input[25] > 1.8012738853503187) {
                var26 = -0.10480834246127012;
            } else {
                if (input[6] > 116.50000000000001) {
                    if (input[1] <= -4214.499999999999) {
                        var26 = 0.02491162736393384;
                    } else {
                        if (input[32] > 0.8290116852243247) {
                            if (input[2] > 3842.0000000000005) {
                                if (input[12] > 3595144.5000000005) {
                                    var26 = 0.10551730827918426;
                                } else {
                                    var26 = -0.005780047706425615;
                                }
                            } else {
                                if (input[44] > 40.50000000000001) {
                                    if (input[18] > 1.1315492163823613) {
                                        if (input[42] > 1.0648496599308277) {
                                            if (input[1] <= -2438.9999999999995) {
                                                if (input[3] > 7997.500000000001) {
                                                    var26 = -0.04179825018669138;
                                                } else {
                                                    var26 = 0.10444174806216336;
                                                }
                                            } else {
                                                if (input[8] > 6551.000000000001) {
                                                    var26 = 0.10128309696206211;
                                                } else {
                                                    if (input[8] > 6455.500000000001) {
                                                        var26 = -0.0768653005557584;
                                                    } else {
                                                        var26 = 0.10297524617751377;
                                                    }
                                                }
                                            }
                                        } else {
                                            var26 = -0.09021055600875584;
                                        }
                                    } else {
                                        var26 = 0.10351938521607654;
                                    }
                                } else {
                                    var26 = 0.1738083607687991;
                                }
                            }
                        } else {
                            var26 = 0.03171638443554946;
                        }
                    }
                } else {
                    var26 = -0.13728155339374004;
                }
            }
        } else {
            if (input[11] > 55938922.00000001) {
                if (input[11] > 84527443.50000001) {
                    var26 = 0.020832592054740348;
                } else {
                    if (input[2] <= -196.49999999999997) {
                        var26 = -0.06306846321326014;
                    } else {
                        var26 = -0.10629987181098961;
                    }
                }
            } else {
                if (input[9] > 4061.0000000000005) {
                    var26 = 0.10135413754881595;
                } else {
                    var26 = -0.12711928108671075;
                }
            }
        }
    } else {
        var26 = -0.10478119650757463;
    }
    double var27;
    if (input[18] > 0.9978855607379279) {
        if (input[6] > 116.50000000000001) {
            if (input[25] > 1.7029411764705884) {
                var27 = -0.10426955663305482;
            } else {
                if (input[17] > 0.8359637536496053) {
                    if (input[34] > 1.0141707927984844) {
                        var27 = 0.026217793814815857;
                    } else {
                        if (input[1] <= -4214.499999999999) {
                            var27 = 0.022918347089927918;
                        } else {
                            if (input[44] > 49.833333333333336) {
                                if (input[2] > 3842.0000000000005) {
                                    if (input[12] > 3595144.5000000005) {
                                        var27 = 0.10766803776675334;
                                    } else {
                                        var27 = -0.018520653781103305;
                                    }
                                } else {
                                    if (input[33] > 0.8714396556241678) {
                                        if (input[48] > 14.374729783545652) {
                                            if (input[12] > 12624973.000000002) {
                                                var27 = 0.1470338651125272;
                                            } else {
                                                if (input[34] > 1.0129734320068002) {
                                                    var27 = 0.0385698232828476;
                                                } else {
                                                    var27 = 0.10289524761166609;
                                                }
                                            }
                                        } else {
                                            if (input[45] > 441.16071428571433) {
                                                if (input[47] > 3.1866012451278745) {
                                                    var27 = 0.10285339974124466;
                                                } else {
                                                    var27 = -0.21109074301020572;
                                                }
                                            } else {
                                                if (input[46] > 5.775227089775435) {
                                                    var27 = 0.038374013713867554;
                                                } else {
                                                    var27 = 0.10315894797140597;
                                                }
                                            }
                                        }
                                    } else {
                                        var27 = 0.20736247214543982;
                                    }
                                }
                            } else {
                                var27 = 0.019398456719140297;
                            }
                        }
                    }
                } else {
                    if (input[8] > 3785.5000000000005) {
                        var27 = 0.11563183192088143;
                    } else {
                        var27 = -0.1054932300880064;
                    }
                }
            }
        } else {
            if (input[32] > 0.8769930815770132) {
                var27 = -0.13791606671916926;
            } else {
                var27 = -0.10453476006444395;
            }
        }
    } else {
        if (input[15] > 0.8527017354438569) {
            var27 = 0.06934724367234313;
        } else {
            var27 = -0.10486055225313409;
        }
    }
    double var28;
    if (input[18] > 0.9978855607379279) {
        if (input[6] > 116.50000000000001) {
            if (input[25] > 1.7029411764705884) {
                var28 = -0.10384681817013564;
            } else {
                if (input[34] > 1.0141707927984844) {
                    if (input[11] > 55938922.00000001) {
                        if (input[0] > 15.500000000000002) {
                            var28 = -0.10428669902277253;
                        } else {
                            var28 = 0.0402621729005522;
                        }
                    } else {
                        var28 = 0.11512749943737544;
                    }
                } else {
                    if (input[1] <= -4214.499999999999) {
                        var28 = 0.02104934007846286;
                    } else {
                        if (input[32] > 0.8290116852243247) {
                            if (input[2] > 3842.0000000000005) {
                                if (input[12] > 3595144.5000000005) {
                                    var28 = 0.10706428476399388;
                                } else {
                                    var28 = -0.016426824875135186;
                                }
                            } else {
                                if (input[44] > 40.50000000000001) {
                                    if (input[7] > 388.00000000000006) {
                                        if (input[47] > 3.1866012451278745) {
                                            if (input[35] > 0.990964551085275) {
                                                var28 = 0.10340139894466426;
                                            } else {
                                                var28 = 0.14833238776513175;
                                            }
                                        } else {
                                            if (input[47] > 3.0283064543083458) {
                                                if (input[7] > 18422.500000000004) {
                                                    if (input[45] > 830.6187500000001) {
                                                        var28 = 0.023122000413257043;
                                                    } else {
                                                        var28 = 0.10268324009627705;
                                                    }
                                                } else {
                                                    var28 = -0.12426468892590864;
                                                }
                                            } else {
                                                var28 = 0.10232534578905471;
                                            }
                                        }
                                    } else {
                                        var28 = 0.014504692217514365;
                                    }
                                } else {
                                    var28 = 0.1621099057632774;
                                }
                            }
                        } else {
                            var28 = 0.014137733963738342;
                        }
                    }
                }
            }
        } else {
            var28 = -0.10593799818387556;
        }
    } else {
        if (input[15] > 0.8527017354438569) {
            var28 = 0.06551150160456536;
        } else {
            if (input[0] > 27.500000000000004) {
                var28 = -0.075318586835494;
            } else {
                var28 = -0.10515268658752773;
            }
        }
    }
    double var29;
    if (input[18] > 0.9978855607379279) {
        if (input[6] > 116.50000000000001) {
            if (input[25] > 1.7029411764705884) {
                var29 = -0.1034674095772789;
            } else {
                if (input[34] > 1.0141707927984844) {
                    if (input[11] > 55938922.00000001) {
                        if (input[10] > 3973.1666666666674) {
                            var29 = 0.05439262726462525;
                        } else {
                            if (input[12] > 3306670.5000000005) {
                                var29 = -0.04310268989630217;
                            } else {
                                if (input[8] > 3752.0000000000005) {
                                    var29 = -0.16313978080474417;
                                } else {
                                    var29 = -0.10431609732881225;
                                }
                            }
                        }
                    } else {
                        var29 = 0.11413313179421605;
                    }
                } else {
                    if (input[1] <= -4214.499999999999) {
                        var29 = 0.019302155631338257;
                    } else {
                        if (input[44] > 49.833333333333336) {
                            if (input[2] > 3842.0000000000005) {
                                if (input[12] > 3595144.5000000005) {
                                    var29 = 0.10650076217971623;
                                } else {
                                    var29 = -0.014594252120185981;
                                }
                            } else {
                                if (input[33] > 0.8714396556241678) {
                                    if (input[48] > 14.374729783545652) {
                                        var29 = 0.10193244233631434;
                                    } else {
                                        if (input[45] > 441.16071428571433) {
                                            if (input[47] > 3.1866012451278745) {
                                                var29 = 0.10232380744109189;
                                            } else {
                                                var29 = -0.16113864897467722;
                                            }
                                        } else {
                                            if (input[46] > 5.775227089775435) {
