import 'dart:math';
List<double> score(List<double> input) {
    double var0;
    if (input[33] < 0.8765718) {
        if (input[3] < 10973.0) {
            var0 = -0.19844207;
        } else {
            var0 = -0.05;
        }
    } else {
        if (input[35] < 0.9890948) {
            if (input[11] < 38663140.0) {
                if (input[13] < 0.62724406) {
                    var0 = -0.05;
                } else {
                    var0 = 0.18787879;
                }
            } else {
                if (input[11] < 93722590.0) {
                    if (input[11] < 48303376.0) {
                        var0 = -0.05;
                    } else {
                        var0 = -0.19827586;
                    }
                } else {
                    var0 = 0.05;
                }
            }
        } else {
            if (input[25] < 1.6666666) {
                if (input[6] < 126.0) {
                    var0 = -0.13333334;
                } else {
                    if (input[17] < 0.9122807) {
                        var0 = 0.022222223;
                    } else {
                        var0 = 0.19835335;
                    }
                }
            } else {
                var0 = -0.19515152;
            }
        }
    }
    double var1;
    if (input[33] < 0.8765718) {
        if (input[18] < 1.2831326) {
            var1 = -0.18053555;
        } else {
            var1 = -0.05757468;
        }
    } else {
        if (input[35] < 0.9890948) {
            if (input[11] < 38663140.0) {
                if (input[1] < -1009.0) {
                    var1 = -0.022109583;
                } else {
                    var1 = 0.17152447;
                }
            } else {
                if (input[11] < 92600060.0) {
                    var1 = -0.17968868;
                } else {
                    var1 = 0.022226632;
                }
            }
        } else {
            if (input[25] < 1.6666666) {
                if (input[6] < 126.0) {
                    var1 = -0.12482635;
                } else {
                    if (input[17] < 0.9122807) {
                        var1 = 0.020989144;
                    } else {
                        var1 = 0.18037006;
                    }
                }
            } else {
                var1 = -0.17781113;
            }
        }
    }
    double var2;
    if (input[33] < 0.8765718) {
        if (input[22] < 1.974016) {
            var2 = -0.16703618;
        } else {
            var2 = -0.049616978;
        }
    } else {
        if (input[35] < 0.9890948) {
            if (input[3] < 3831.0) {
                var2 = 0.15406193;
            } else {
                if (input[11] < 92600060.0) {
                    if (input[11] < 48303376.0) {
                        var2 = -0.028356476;
                    } else {
                        var2 = -0.16701739;
                    }
                } else {
                    var2 = 0.02099475;
                }
            }
        } else {
            if (input[25] < 1.6666666) {
                if (input[6] < 126.0) {
                    var2 = -0.11750853;
                } else {
                    if (input[17] < 0.9122807) {
                        var2 = 0.01982711;
                    } else {
                        var2 = 0.166812;
                    }
                }
            } else {
                var2 = -0.1646349;
            }
        }
    }
    double var3;
    if (input[33] < 0.8765718) {
        if (input[3] < 10510.0) {
            var3 = -0.1564835;
        } else {
            var3 = -0.046927046;
        }
    } else {
        if (input[35] < 0.9890948) {
            if (input[11] < 38663140.0) {
                if (input[3] < 3831.0) {
                    var3 = 0.14959626;
                } else {
                    var3 = -0.0214942;
                }
            } else {
                if (input[11] < 92600060.0) {
                    var3 = -0.15582083;
                } else {
                    var3 = 0.01983375;
                }
            }
        } else {
            if (input[25] < 1.6666666) {
                if (input[6] < 126.0) {
                    var3 = -0.11113292;
                } else {
                    if (input[17] < 0.91935486) {
                        var3 = 0.051346105;
                    } else {
                        var3 = 0.15638709;
                    }
                }
            } else {
                var3 = -0.15429781;
            }
        }
    }
    double var4;
    if (input[33] < 0.8765718) {
        if (input[33] < 0.8708264) {
            var4 = -0.14851087;
        } else {
            if (input[8] < 5926.0) {
                var4 = -0.10302693;
            } else {
                var4 = 0.0065981867;
            }
        }
    } else {
        if (input[35] < 0.9890948) {
            if (input[11] < 38663140.0) {
                if (input[1] < -1009.0) {
                    var4 = -0.022097489;
                } else {
                    var4 = 0.14158818;
                }
            } else {
                if (input[11] < 92600060.0) {
                    var4 = -0.14739665;
                } else {
                    var4 = 0.01873911;
                }
            }
        } else {
            if (input[25] < 1.6666666) {
                if (input[6] < 126.0) {
                    var4 = -0.105514124;
                } else {
                    if (input[17] < 0.9310345) {
                        var4 = 0.06546399;
                    } else {
                        var4 = 0.1480851;
                    }
                }
            } else {
                var4 = -0.14598404;
            }
        }
    }
    double var5;
    if (input[33] < 0.8765718) {
        if (input[22] < 1.974016) {
            var5 = -0.14122993;
        } else {
            var5 = -0.035231803;
        }
    } else {
        if (input[35] < 0.9890948) {
            if (input[11] < 38663140.0) {
                if (input[3] < 3831.0) {
                    var5 = 0.13474888;
                } else {
                    var5 = -0.020922517;
                }
            } else {
                if (input[3] < 8699.0) {
                    var5 = -0.14068829;
                } else {
                    var5 = 0.013691924;
                }
            }
        } else {
            if (input[25] < 1.6666666) {
                if (input[6] < 126.0) {
                    var5 = -0.10051085;
                } else {
                    if (input[34] < 1.0141193) {
                        var5 = 0.14107679;
                    } else {
                        var5 = 0.045920562;
                    }
                }
            } else {
                var5 = -0.1391621;
            }
        }
    }
    double var6;
    if (input[33] < 0.8765718) {
        if (input[33] < 0.8708264) {
            var6 = -0.1359794;
        } else {
            if (input[8] < 5926.0) {
                var6 = -0.0927476;
            } else {
                var6 = 0.012727476;
            }
        }
    } else {
        if (input[35] < 0.9890948) {
            if (input[3] < 3831.0) {
                if (input[7] < 2897.0) {
                    var6 = 0.036782842;
                } else {
                    var6 = 0.12830678;
                }
            } else {
                if (input[18] < 1.0509956) {
                    if (input[12] < 12463209.0) {
                        var6 = -0.13542569;
                    } else {
                        var6 = -0.039877288;
                    }
                } else {
                    if (input[2] < 1959.0) {
                        var6 = 0.040199537;
                    } else {
                        var6 = -0.030445626;
                    }
                }
            }
        } else {
            if (input[25] < 1.6666666) {
                if (input[6] < 126.0) {
                    var6 = -0.09601398;
                } else {
                    if (input[17] < 0.9310345) {
                        var6 = 0.05376361;
                    } else {
                        var6 = 0.1354901;
                    }
                }
            } else {
                var6 = -0.13346992;
            }
        }
    }
    double var7;
    if (input[33] < 0.8765718) {
        if (input[33] < 0.8685726) {
            var7 = -0.13171236;
        } else {
            if (input[8] < 5949.0) {
                var7 = -0.10986989;
            } else {
                var7 = 0.043795254;
            }
        }
    } else {
        if (input[35] < 0.9890948) {
            if (input[11] < 38663140.0) {
                if (input[1] < -1009.0) {
                    var7 = -0.018867493;
                } else {
                    var7 = 0.12452322;
                }
            } else {
                if (input[11] < 92600060.0) {
                    var7 = -0.13009433;
                } else {
                    var7 = 0.022033947;
                }
            }
        } else {
            if (input[25] < 1.6666666) {
                if (input[6] < 126.0) {
                    var7 = -0.09193817;
                } else {
                    if (input[17] < 0.9310345) {
                        var7 = 0.050122876;
                    } else {
                        var7 = 0.13068363;
                    }
                }
            } else {
                var7 = -0.12865175;
            }
        }
    }
    double var8;
    if (input[33] < 0.8765718) {
        if (input[33] < 0.8685726) {
            var8 = -0.12768266;
        } else {
            if (input[8] < 5949.0) {
                var8 = -0.10586186;
            } else {
                var8 = 0.040969774;
            }
        }
    } else {
        if (input[35] < 0.9890948) {
            if (input[11] < 38663140.0) {
                if (input[8] < 4203.0) {
                    var8 = -0.013660622;
                } else {
                    var8 = 0.12125053;
                }
            } else {
                if (input[3] < 8699.0) {
                    var8 = -0.1261193;
                } else {
                    var8 = 0.018442966;
                }
            }
        } else {
            if (input[25] < 1.6666666) {
                if (input[6] < 126.0) {
                    var8 = -0.08821606;
                } else {
                    if (input[34] < 1.0141193) {
                        var8 = 0.12646191;
                    } else {
                        var8 = 0.03156167;
                    }
                }
            } else {
                var8 = -0.124521375;
            }
        }
    }
    double var9;
    if (input[33] < 0.8765718) {
        if (input[36] < 1.057668) {
            var9 = -0.12327041;
        } else {
            var9 = -0.022711465;
        }
    } else {
        if (input[35] < 0.9890948) {
            if (input[11] < 48303376.0) {
                if (input[16] < 1.1425459) {
                    var9 = -0.08939069;
                } else {
                    var9 = 0.12334855;
                }
            } else {
                if (input[3] < 8699.0) {
                    var9 = -0.123721264;
                } else {
                    var9 = 0.017356362;
                }
            }
        } else {
            if (input[25] < 1.6666666) {
                if (input[6] < 126.0) {
                    var9 = -0.08479387;
                } else {
                    if (input[17] < 0.9310345) {
                        var9 = 0.040669046;
                    } else {
                        var9 = 0.123089336;
                    }
                }
            } else {
                var9 = -0.120939694;
            }
        }
    }
    double var10;
    if (input[33] < 0.88350046) {
        if (input[8] < 8210.0) {
            if (input[8] < 7918.0) {
                var10 = -0.12116742;
            } else {
                if (input[10] < 2406.0) {
                    var10 = -0.08793869;
                } else {
                    var10 = 0.016341053;
                }
            }
        } else {
            var10 = 0.051155623;
        }
    } else {
        if (input[41] < 0.9336694) {
            if (input[3] < 3831.0) {
                var10 = 0.1123594;
            } else {
                if (input[18] < 1.0509956) {
                    if (input[11] < 48303376.0) {
                        var10 = -0.026306763;
                    } else {
                        var10 = -0.12090727;
                    }
                } else {
                    var10 = 0.008502076;
                }
            }
        } else {
            if (input[25] < 1.6666666) {
                if (input[5] < 128.0) {
                    var10 = -0.081628405;
                } else {
                    if (input[17] < 0.9310345) {
                        var10 = 0.038350366;
                    } else {
                        var10 = 0.12026086;
                    }
                }
            } else {
                var10 = -0.117800474;
            }
        }
    }
    double var11;
    if (input[33] < 0.88350046) {
        if (input[8] < 8210.0) {
            if (input[8] < 7918.0) {
                var11 = -0.118546225;
            } else {
                if (input[19] < 2.2708333) {
                    var11 = 0.019908737;
                } else {
                    var11 = -0.08465161;
                }
            }
        } else {
            var11 = 0.04851424;
        }
    } else {
        if (input[41] < 0.9336694) {
            if (input[3] < 3831.0) {
                var11 = 0.109246746;
            } else {
                if (input[18] < 1.0509956) {
                    if (input[11] < 48303376.0) {
                        var11 = -0.025098545;
                    } else {
                        var11 = -0.11823944;
                    }
                } else {
                    var11 = 0.007978833;
                }
            }
        } else {
            if (input[25] < 1.6666666) {
                if (input[5] < 128.0) {
                    var11 = -0.07868465;
                } else {
                    if (input[17] < 0.9310345) {
                        var11 = 0.035485964;
                    } else {
                        var11 = 0.117598414;
                    }
                }
            } else {
                var11 = -0.11502092;
            }
        }
    }
    double var12;
    if (input[33] < 0.8765718) {
        if (input[33] < 0.8685726) {
            var12 = -0.11654214;
        } else {
            if (input[8] < 5949.0) {
                var12 = -0.090921074;
            } else {
                var12 = 0.05050453;
            }
        }
    } else {
        if (input[35] < 0.9890948) {
            if (input[11] < 48303376.0) {
                if (input[16] < 1.1425459) {
                    var12 = -0.08371385;
                } else {
                    var12 = 0.11500712;
                }
            } else {
                if (input[11] < 92600060.0) {
                    var12 = -0.11574995;
                } else {
                    var12 = 0.026307484;
                }
            }
        } else {
            if (input[25] < 1.6666666) {
                if (input[6] < 191.0) {
                    if (input[2] < 1466.0) {
                        var12 = 0.017633568;
                    } else {
                        var12 = -0.08384415;
                    }
                } else {
                    if (input[34] < 1.0141193) {
                        var12 = 0.11508288;
                    } else {
                        var12 = 0.015404174;
                    }
                }
            } else {
                var12 = -0.11253548;
            }
        }
    }
    double var13;
    if (input[33] < 0.8765718) {
        if (input[33] < 0.8685726) {
            var13 = -0.11455794;
        } else {
            if (input[8] < 5949.0) {
                var13 = -0.08829859;
            } else {
                var13 = 0.047220692;
            }
        }
    } else {
        if (input[35] < 0.9932802) {
            if (input[11] < 55907940.0) {
                if (input[9] < 4197.0) {
                    var13 = -0.0554958;
                } else {
                    if (input[2] < -1848.0) {
                        var13 = 0.026148194;
                    } else {
                        var13 = 0.114906065;
                    }
                }
            } else {
                if (input[3] < 8699.0) {
                    if (input[2] < -1127.0) {
                        var13 = 0.009461;
                    } else {
                        var13 = -0.11426977;
                    }
                } else {
                    if (input[44] < 1389.5) {
                        var13 = -0.026297165;
                    } else {
                        var13 = 0.079685755;
                    }
                }
            }
        } else {
            if (input[25] < 1.6666666) {
                if (input[6] < 191.0) {
                    var13 = -0.009709487;
                } else {
                    if (input[1] < -4219.0) {
                        var13 = 0.048861768;
                    } else {
                        var13 = 0.11375196;
                    }
                }
            } else {
                var13 = -0.11029132;
            }
        }
    }
    double var14;
    if (input[33] < 0.8765718) {
        if (input[33] < 0.8685726) {
            var14 = -0.11280441;
        } else {
            if (input[8] < 5949.0) {
                var14 = -0.08580475;
            } else {
                var14 = 0.04418027;
            }
        }
    } else {
        if (input[17] < 0.9122807) {
            if (input[11] < 55907940.0) {
                if (input[16] < 1.1425459) {
                    var14 = -0.07911395;
                } else {
                    var14 = 0.11177937;
                }
            } else {
                if (input[11] < 93722590.0) {
                    var14 = -0.11159042;
                } else {
                    var14 = 0.015114938;
                }
            }
        } else {
            if (input[25] < 1.6666666) {
                if (input[6] < 191.0) {
                    if (input[2] < 1466.0) {
                        var14 = 0.018224197;
                    } else {
                        var14 = -0.08085637;
                    }
                } else {
                    if (input[1] < -3831.0) {
                        var14 = 0.045557704;
                    } else {
                        var14 = 0.11172133;
                    }
                }
            } else {
                var14 = -0.108245365;
            }
        }
    }
    double var15;
    if (input[33] < 0.8765718) {
        if (input[33] < 0.8685726) {
            var15 = -0.11124605;
        } else {
            if (input[10] < 2931.6667) {
                var15 = -0.08771531;
            } else {
                var15 = 0.03582626;
            }
        }
    } else {
        if (input[35] < 0.9932802) {
            if (input[11] < 55907940.0) {
                if (input[16] < 1.1425459) {
                    var15 = -0.028784115;
                } else {
                    var15 = 0.109265625;
                }
            } else {
                if (input[3] < 8699.0) {
                    if (input[2] < -1127.0) {
                        var15 = 0.008633191;
                    } else {
                        var15 = -0.11059027;
                    }
                } else {
                    if (input[44] < 1389.5) {
                        var15 = -0.02441216;
                    } else {
                        var15 = 0.074681126;
                    }
                }
            }
        } else {
            if (input[25] < 1.6666666) {
                if (input[6] < 191.0) {
                    var15 = -0.008074572;
                } else {
                    if (input[1] < -4219.0) {
                        var15 = 0.044015646;
                    } else {
                        var15 = 0.11027812;
                    }
                }
            } else {
                var15 = -0.10636201;
            }
        }
    }
    double var16;
    if (input[33] < 0.8765718) {
        if (input[33] < 0.8685726) {
            var16 = -0.1098534;
        } else {
            if (input[8] < 5949.0) {
                var16 = -0.08219343;
            } else {
                var16 = 0.04310682;
            }
        }
    } else {
        if (input[35] < 0.9932802) {
            if (input[11] < 55907940.0) {
                if (input[9] < 4197.0) {
                    var16 = -0.05019148;
                } else {
                    if (input[2] < -1494.0) {
                        var16 = 0.028222723;
                    } else {
                        var16 = 0.1069312;
                    }
                }
            } else {
                if (input[11] < 85074880.0) {
                    if (input[2] < -1127.0) {
                        var16 = 0.008194158;
                    } else {
                        var16 = -0.11001334;
                    }
                } else {
                    if (input[0] < 16.0) {
                        var16 = 0.06047702;
                    } else {
                        var16 = -0.06538271;
                    }
                }
            }
        } else {
            if (input[25] < 1.6666666) {
                if (input[6] < 191.0) {
                    var16 = -0.0075976797;
                } else {
                    if (input[1] < -4219.0) {
                        var16 = 0.041714188;
                    } else {
                        var16 = 0.10878631;
                    }
                }
            } else {
                var16 = -0.10461148;
            }
        }
    }
    double var17;
    if (input[33] < 0.8765718) {
        if (input[33] < 0.8685726) {
            var17 = -0.10860183;
        } else {
            if (input[10] < 2931.6667) {
                var17 = -0.08415894;
            } else {
                var17 = 0.035656165;
            }
        }
    } else {
        if (input[17] < 0.9122807) {
            if (input[11] < 55907940.0) {
                if (input[16] < 1.1425459) {
                    var17 = -0.07407287;
                } else {
                    var17 = 0.10438535;
                }
            } else {
                if (input[11] < 93722590.0) {
                    if (input[12] < 9914203.0) {
                        var17 = -0.10823158;
                    } else {
                        var17 = -0.027448932;
                    }
                } else {
                    var17 = 0.013821264;
                }
            }
        } else {
            if (input[25] < 1.6666666) {
                if (input[6] < 191.0) {
                    if (input[2] < 1466.0) {
                        var17 = 0.019890813;
                    } else {
                        var17 = -0.073659375;
                    }
                } else {
                    if (input[1] < -3831.0) {
                        var17 = 0.03723843;
                    } else {
                        var17 = 0.107185304;
                    }
                }
            } else {
                var17 = -0.102968656;
            }
        }
    }
    double var18;
    if (input[33] < 0.8765718) {
        if (input[33] < 0.8685726) {
            var18 = -0.10747053;
        } else {
            if (input[8] < 5949.0) {
                var18 = -0.07890757;
            } else {
                var18 = 0.041962914;
            }
        }
    } else {
        if (input[35] < 0.9932802) {
            if (input[11] < 55907940.0) {
                if (input[16] < 1.1425459) {
                    var18 = -0.028159136;
                } else {
                    var18 = 0.10228173;
                }
            } else {
                if (input[3] < 8699.0) {
                    if (input[8] < 4100.0) {
                        var18 = -0.107716635;
                    } else {
                        var18 = -0.028885985;
                    }
                } else {
                    if (input[34] < 1.014354) {
                        var18 = 0.06438216;
                    } else {
                        var18 = -0.01840069;
                    }
                }
            }
        } else {
            if (input[25] < 1.6666666) {
                if (input[6] < 191.0) {
                    var18 = -0.006282288;
                } else {
                    if (input[1] < -4219.0) {
                        var18 = 0.03751273;
                    } else {
                        var18 = 0.106179275;
                    }
                }
            } else {
                var18 = -0.10141217;
            }
        }
    }
    double var19;
    if (input[33] < 0.8765718) {
        if (input[33] < 0.8685726) {
            var19 = -0.10644167;
        } else {
            if (input[10] < 2931.6667) {
                var19 = -0.08090986;
            } else {
                var19 = 0.03530833;
            }
        }
    } else {
        if (input[35] < 0.9932802) {
            if (input[11] < 55907940.0) {
                if (input[16] < 1.1425459) {
                    var19 = -0.026408315;
                } else {
                    var19 = 0.10008196;
                }
            } else {
                if (input[11] < 85074880.0) {
                    if (input[8] < 4237.0) {
                        var19 = -0.106439985;
                    } else {
                        var19 = -0.033560734;
                    }
                } else {
                    if (input[45] < 784.5) {
                        var19 = -0.043062452;
                    } else {
                        var19 = 0.048515104;
                    }
                }
            }
        } else {
            if (input[25] < 1.6666666) {
                if (input[6] < 191.0) {
                    var19 = -0.005912687;
                } else {
                    if (input[1] < -4219.0) {
                        var19 = 0.03548173;
                    } else {
                        var19 = 0.10501665;
                    }
                }
            } else {
                var19 = -0.09992366;
            }
        }
    }
    double var20;
    if (input[33] < 0.8765718) {
        if (input[33] < 0.8685726) {
            var20 = -0.10549998;
        } else {
            if (input[8] < 5949.0) {
                var20 = -0.07588733;
            } else {
                var20 = 0.040775012;
            }
        }
    } else {
        if (input[35] < 0.9932802) {
            if (input[11] < 55907940.0) {
                if (input[16] < 1.1425459) {
                    var20 = -0.024765752;
                } else {
                    var20 = 0.09794647;
                }
            } else {
                if (input[11] < 85074880.0) {
                    if (input[8] < 4237.0) {
                        var20 = -0.10536925;
                    } else {
                        var20 = -0.03125883;
                    }
                } else {
                    if (input[45] < 784.5) {
                        var20 = -0.04096803;
                    } else {
                        var20 = 0.04547172;
                    }
                }
            }
        } else {
            if (input[25] < 1.6666666) {
                if (input[6] < 191.0) {
                    var20 = -0.005564951;
                } else {
                    if (input[1] < -4219.0) {
                        var20 = 0.033539113;
                    } else {
                        var20 = 0.103927866;
                    }
                }
            } else {
                var20 = -0.0984874;
            }
        }
    }
    double var21;
    if (input[33] < 0.8765718) {
        if (input[33] < 0.8685726) {
            var21 = -0.10463213;
        } else {
            if (input[10] < 2931.6667) {
                var21 = -0.077911966;
            } else {
                var21 = 0.034823235;
            }
        }
    } else {
        if (input[17] < 0.9122807) {
            if (input[11] < 55907940.0) {
                if (input[16] < 1.1425459) {
                    var21 = -0.068784334;
                } else {
                    var21 = 0.0956487;
                }
            } else {
                if (input[11] < 93722590.0) {
                    if (input[12] < 9461767.0) {
                        var21 = -0.103886425;
                    } else {
                        var21 = -0.027648035;
                    }
                } else {
                    var21 = 0.012861622;
                }
            }
        } else {
            if (input[25] < 1.6666666) {
                if (input[6] < 126.0) {
                    var21 = -0.06464283;
                } else {
                    if (input[1] < -3831.0) {
                        var21 = 0.027646992;
                    } else {
                        var21 = 0.10213144;
                    }
                }
            } else {
                var21 = -0.09708974;
            }
        }
    }
    double var22;
    if (input[33] < 0.8765718) {
        if (input[33] < 0.8685726) {
            var22 = -0.10382642;
        } else {
            if (input[8] < 5949.0) {
                var22 = -0.073090635;
            } else {
                var22 = 0.03956385;
            }
        }
    } else {
        if (input[35] < 0.9932802) {
            if (input[11] < 55907940.0) {
                if (input[16] < 1.1425459) {
                    var22 = -0.02370224;
                } else {
                    var22 = 0.09382219;
                }
            } else {
                if (input[11] < 85074880.0) {
                    if (input[8] < 4237.0) {
                        var22 = -0.10356969;
                    } else {
                        var22 = -0.03118222;
                    }
                } else {
                    if (input[0] < 14.0) {
                        var22 = 0.044176802;
                    } else {
                        var22 = -0.033776607;
                    }
                }
            }
        } else {
            if (input[25] < 1.6666666) {
                if (input[6] < 191.0) {
                    var22 = -0.00900489;
                } else {
                    if (input[1] < -4219.0) {
                        var22 = 0.030138705;
                    } else {
                        var22 = 0.10192654;
                    }
                }
            } else {
                var22 = -0.09571889;
            }
        }
    }
    double var23;
    if (input[33] < 0.8765718) {
        if (input[33] < 0.8685726) {
            var23 = -0.1030725;
        } else {
            if (input[10] < 2931.6667) {
                var23 = -0.075126074;
            } else {
                var23 = 0.03423379;
            }
        }
    } else {
        if (input[35] < 0.9932802) {
            if (input[11] < 55907940.0) {
                if (input[16] < 1.1425459) {
                    var23 = -0.022258786;
                } else {
                    var23 = 0.09181287;
                }
            } else {
                if (input[3] < 8699.0) {
                    if (input[8] < 4100.0) {
                        var23 = -0.102954626;
                    } else {
                        var23 = -0.02213806;
                    }
                } else {
                    var23 = 0.026043473;
                }
            }
        } else {
            if (input[25] < 1.6666666) {
                if (input[6] < 191.0) {
                    var23 = -0.008481857;
                } else {
                    if (input[1] < -4219.0) {
                        var23 = 0.02843958;
                    } else {
                        var23 = 0.10097803;
                    }
                }
            } else {
                var23 = -0.094364725;
            }
        }
    }
    double var24;
    if (input[33] < 0.8765718) {
        if (input[33] < 0.8685726) {
            var24 = -0.10236116;
        } else {
            if (input[8] < 5949.0) {
                var24 = -0.070487395;
            } else {
                var24 = 0.038345646;
            }
        }
    } else {
        if (input[17] < 0.9122807) {
            if (input[11] < 55907940.0) {
                if (input[16] < 1.1548836) {
                    var24 = -0.057797145;
                } else {
                    var24 = 0.08921654;
                }
            } else {
                if (input[11] < 85074880.0) {
                    var24 = -0.10077915;
                } else {
                    var24 = -0.0053139366;
                }
            }
        } else {
            if (input[25] < 1.6666666) {
                if (input[6] < 191.0) {
                    if (input[14] < 0.5192949) {
                        var24 = 0.0064608576;
                    } else {
                        var24 = -0.060211092;
                    }
                } else {
                    if (input[1] < -3831.0) {
                        var24 = 0.021822823;
                    } else {
                        var24 = 0.09965832;
                    }
                }
            } else {
                var24 = -0.093018495;
            }
        }
    }
    double var25;
    if (input[33] < 0.8765718) {
        if (input[33] < 0.8685726) {
            var25 = -0.10168405;
        } else {
            if (input[10] < 2931.6667) {
                var25 = -0.07252436;
            } else {
                var25 = 0.03356676;
            }
        }
    } else {
        if (input[35] < 0.9932802) {
            if (input[11] < 55907940.0) {
                if (input[16] < 1.1425459) {
                    var25 = -0.021681692;
                } else {
                    var25 = 0.08795714;
                }
            } else {
                if (input[11] < 85074880.0) {
                    if (input[10] < 2718.0) {
                        var25 = -0.035461064;
                    } else {
                        var25 = -0.102745295;
                    }
                } else {
                    if (input[0] < 14.0) {
                        var25 = 0.042176772;
                    } else {
                        var25 = -0.03239416;
                    }
                }
            }
        } else {
            if (input[25] < 1.6666666) {
                if (input[6] < 191.0) {
                    var25 = -0.0075153145;
                } else {
                    if (input[1] < -4219.0) {
                        var25 = 0.025569668;
                    } else {
                        var25 = 0.09915201;
                    }
                }
            } else {
                var25 = -0.09167284;
            }
        }
    }
    double var26;
    if (input[18] < 0.99344987) {
        if (input[3] < 4232.0) {
            var26 = 0.0356731;
        } else {
            var26 = -0.10255527;
        }
    } else {
        if (input[5] < 128.0) {
            if (input[19] < 2.3672316) {
                var26 = -0.099508144;
            } else {
                var26 = 0.022366395;
            }
        } else {
            if (input[25] < 1.7) {
                if (input[16] < 1.140533) {
                    if (input[1] < -4219.0) {
                        var26 = 0.024092032;
                    } else {
                        var26 = 0.09857785;
                    }
                } else {
                    if (input[11] < 55907940.0) {
                        var26 = 0.084330514;
                    } else {
                        var26 = -0.063862;
                    }
                }
            } else {
                var26 = -0.09032154;
            }
        }
    }
    double var27;
    if (input[18] < 0.99344987) {
        if (input[3] < 4232.0) {
            var27 = 0.034228478;
        } else {
            var27 = -0.10174574;
        }
    } else {
        if (input[5] < 128.0) {
            if (input[19] < 2.3672316) {
                var27 = -0.09847713;
            } else {
                var27 = 0.021242587;
            }
        } else {
            if (input[25] < 1.7) {
                if (input[34] < 1.0141193) {
                    if (input[1] < -4219.0) {
                        var27 = 0.022688722;
                    } else {
                        var27 = 0.09745508;
                    }
                } else {
                    if (input[11] < 55907940.0) {
                        var27 = 0.08236403;
                    } else {
                        var27 = -0.06350748;
                    }
                }
            } else {
                var27 = -0.088959545;
            }
        }
    }
    double var28;
    if (input[18] < 0.99344987) {
        if (input[3] < 4232.0) {
            var28 = 0.03283342;
        } else {
            var28 = -0.10092928;
        }
    } else {
        if (input[5] < 128.0) {
            if (input[19] < 2.3672316) {
                var28 = -0.097448595;
            } else {
                var28 = 0.020173866;
            }
        } else {
            if (input[25] < 1.7) {
                if (input[16] < 1.140533) {
                    if (input[1] < -4219.0) {
                        var28 = 0.021357391;
                    } else {
                        var28 = 0.09658264;
                    }
                } else {
                    if (input[11] < 55907940.0) {
                        var28 = 0.08042093;
                    } else {
                        var28 = -0.05727461;
                    }
                }
            } else {
                var28 = -0.08758286;
            }
        }
    }
    double var29;
    if (input[18] < 0.99344987) {
        if (input[3] < 4410.0) {
            var29 = 0.029705955;
        } else {
            var29 = -0.100093566;
        }
    } else {
        if (input[5] < 128.0) {
            if (input[19] < 2.3672316) {
                var29 = -0.096416526;
            } else {
                var29 = 0.019157711;
            }
        } else {
            if (input[25] < 1.7) {
                if (input[16] < 1.140533) {
                    if (input[1] < -4219.0) {
                        var29 = 0.020095384;
                    } else {
                        var29 = 0.095547214;
                    }
                } else {
                    if (input[11] < 55907940.0) {
                        var29 = 0.07850128;
                    } else {
                        var29 = -0.053768363;
                    }
                }
            } else {
                var29 = -0.086188465;
            }
        }
    }
    double var30;
    if (input[33] < 0.88350046) {
        if (input[18] < 1.2592949) {
            if (input[22] < 1.8610008) {
                var30 = -0.101129524;
            } else {
                var30 = -0.013328294;
            }
        } else {
            if (input[43] < 12.0) {
                var30 = 0.0052853487;
            } else {
                var30 = 0.023237877;
            }
        }
    } else {
        if (input[35] < 0.9932802) {
            if (input[11] < 55907940.0) {
                if (input[36] < 0.9991507) {
                    var30 = -0.014362012;
                } else {
                    var30 = 0.08004008;
                }
            } else {
                if (input[3] < 8699.0) {
                    if (input[8] < 4100.0) {
                        var30 = -0.0973821;
                    } else {
                        var30 = -0.012300764;
                    }
                } else {
                    var30 = 0.032993864;
                }
            }
        } else {
            if (input[25] < 1.6666666) {
                if (input[1] < -4219.0) {
                    if (input[0] < 7.0) {
                        var30 = 0.06294873;
                    } else {
                        var30 = -0.04079516;
                    }
                } else {
                    if (input[2] < 3201.0) {
                        var30 = 0.09748079;
                    } else {
                        var30 = 0.05177158;
                    }
                }
            } else {
                var30 = -0.084774315;
            }
        }
    }
    double var31;
    if (input[18] < 0.99344987) {
        if (input[26] < 0.18576105) {
            var31 = 0.021947004;
        } else {
            var31 = -0.09835952;
        }
    } else {
        if (input[5] < 128.0) {
            if (input[16] < 0.760133) {
                var31 = 0.017378455;
            } else {
                var31 = -0.094682194;
            }
        } else {
            if (input[25] < 1.7) {
                if (input[34] < 1.0141193) {
                    if (input[1] < -4219.0) {
                        var31 = 0.017918827;
                    } else {
                        var31 = 0.09336632;
                    }
                } else {
                    if (input[0] < 17.0) {
                        var31 = 0.06428914;
                    } else {
                        var31 = -0.059304144;
                    }
                }
            } else {
                var31 = -0.08333926;
            }
        }
    }
    double var32;
    if (input[33] < 0.8685726) {
        var32 = -0.09746802;
    } else {
        if (input[35] < 0.9932802) {
            if (input[11] < 55907940.0) {
                if (input[16] < 1.1425459) {
                    var32 = -0.022780528;
                } else {
                    var32 = 0.07714968;
                }
            } else {
                if (input[11] < 85074880.0) {
                    if (input[10] < 2718.0) {
                        var32 = -0.023103034;
                    } else {
                        var32 = -0.098440155;
                    }
                } else {
                    if (input[0] < 14.0) {
                        var32 = 0.043092154;
                    } else {
                        var32 = -0.019351255;
                    }
                }
            }
        } else {
            if (input[25] < 1.7) {
                if (input[6] < 191.0) {
                    if (input[10] < 2679.3333) {
                        var32 = -0.0662688;
                    } else {
                        var32 = 0.047839746;
                    }
                } else {
                    if (input[1] < -4219.0) {
                        var32 = 0.016841194;
                    } else {
                        var32 = 0.09317073;
                    }
                }
            } else {
                var32 = -0.082039714;
            }
        }
    }
    double var33;
    if (input[18] < 0.99344987) {
        if (input[3] < 4713.0) {
            var33 = 0.014194836;
        } else {
            var33 = -0.097141154;
        }
    } else {
        if (input[6] < 191.0) {
            if (input[18] < 1.2592949) {
                var33 = -0.098512985;
            } else {
                var33 = 0.021816207;
            }
        } else {
            if (input[25] < 1.7) {
                if (input[16] < 1.140533) {
                    if (input[1] < -4219.0) {
                        var33 = 0.015822895;
                    } else {
                        var33 = 0.09243919;
                    }
                } else {
                    if (input[11] < 55907940.0) {
                        var33 = 0.07212118;
                    } else {
                        var33 = -0.04578694;
                    }
                }
            } else {
                var33 = -0.08040296;
            }
        }
    }
    double var34;
    if (input[33] < 0.8685726) {
        var34 = -0.096209325;
    } else {
        if (input[35] < 0.9932802) {
            if (input[11] < 55907940.0) {
                if (input[16] < 1.1425459) {
                    var34 = -0.021356983;
                } else {
                    var34 = 0.07384517;
                }
            } else {
                if (input[11] < 85074880.0) {
                    if (input[10] < 2718.0) {
                        var34 = -0.019978331;
                    } else {
                        var34 = -0.0967563;
                    }
                } else {
                    if (input[0] < 14.0) {
                        var34 = 0.04243046;
                    } else {
                        var34 = -0.015864495;
                    }
                }
            }
        } else {
            if (input[25] < 1.7) {
                if (input[6] < 191.0) {
                    if (input[10] < 2679.3333) {
                        var34 = -0.062519826;
                    } else {
                        var34 = 0.04628848;
                    }
                } else {
                    if (input[2] < 2660.0) {
                        var34 = 0.094238296;
                    } else {
                        var34 = 0.044668924;
                    }
                }
            } else {
                var34 = -0.07907206;
            }
        }
    }
    double var35;
    if (input[18] < 0.99344987) {
        if (input[3] < 4713.0) {
            var35 = 0.012713161;
        } else {
            var35 = -0.09567941;
        }
    } else {
        if (input[6] < 191.0) {
            if (input[18] < 1.2592949) {
                var35 = -0.0969929;
            } else {
                var35 = 0.021959973;
            }
        } else {
            if (input[25] < 1.7) {
                if (input[34] < 1.0141193) {
                    if (input[1] < -4219.0) {
                        var35 = 0.009632788;
                    } else {
                        var35 = 0.090008646;
                    }
                } else {
                    if (input[0] < 17.0) {
                        var35 = 0.06043162;
                    } else {
                        var35 = -0.054334164;
                    }
                }
            } else {
                var35 = -0.07738831;
            }
        }
    }
    double var36;
    if (input[33] < 0.8685726) {
        var36 = -0.094875656;
    } else {
        if (input[35] < 0.9932802) {
            if (input[11] < 55907940.0) {
                if (input[16] < 1.1425459) {
                    var36 = -0.020073216;
                } else {
                    var36 = 0.07151402;
                }
            } else {
                if (input[11] < 85074880.0) {
                    if (input[10] < 2718.0) {
                        var36 = -0.018110594;
                    } else {
                        var36 = -0.09527873;
                    }
                } else {
                    if (input[12] < 3131802.0) {
                        var36 = -0.013949171;
                    } else {
                        var36 = 0.03987823;
                    }
                }
            }
        } else {
            if (input[25] < 1.7) {
                if (input[6] < 191.0) {
                    if (input[10] < 2679.3333) {
                        var36 = -0.058880378;
                    } else {
                        var36 = 0.04480399;
                    }
                } else {
                    if (input[2] < 2660.0) {
                        var36 = 0.09237974;
                    } else {
                        var36 = 0.037878234;
                    }
                }
            } else {
                var36 = -0.07603224;
            }
        }
    }
    double var37;
    if (input[18] < 0.99344987) {
        if (input[14] < 0.66492057) {
            var37 = -0.09478319;
        } else {
            var37 = 0.004430008;
        }
    } else {
        if (input[7] < 209.0) {
            var37 = -0.086794406;
        } else {
            if (input[25] < 1.7) {
                if (input[16] < 1.140533) {
                    if (input[48] < 16.313337) {
                        var37 = 0.054146957;
                    } else {
                        var37 = 0.09826069;
                    }
                } else {
                    if (input[46] < 3.321928) {
                        var37 = -0.037835952;
                    } else {
                        var37 = 0.072743714;
                    }
                }
            } else {
                var37 = -0.0746653;
            }
        }
    }
    double var38;
    if (input[33] < 0.8685726) {
        var38 = -0.09344412;
    } else {
        if (input[35] < 0.9932802) {
            if (input[11] < 55907940.0) {
                if (input[16] < 1.1548836) {
                    var38 = -0.014286356;
                } else {
                    var38 = 0.06868657;
                }
            } else {
                if (input[3] < 8699.0) {
                    if (input[10] < 3015.0) {
                        var38 = -0.023737129;
                    } else {
                        var38 = -0.09351956;
                    }
                } else {
                    var38 = 0.025782457;
                }
            }
        } else {
            if (input[25] < 1.7) {
                if (input[7] < 18479.0) {
                    if (input[4] < 6614.0) {
                        var38 = 0.072941;
                    } else {
                        var38 = -0.19749165;
                    }
                } else {
                    var38 = 0.097446725;
                }
            } else {
                var38 = -0.07293263;
            }
        }
    }
    double var39;
    if (input[18] < 0.99344987) {
        if (input[14] < 0.66492057) {
            var39 = -0.09315043;
        } else {
            var39 = 0.0045540617;
        }
    } else {
        if (input[6] < 191.0) {
            if (input[18] < 1.2592949) {
                var39 = -0.09480629;
            } else {
                var39 = 0.016910981;
            }
        } else {
            if (input[25] < 1.7) {
                if (input[16] < 1.140533) {
                    if (input[1] < -4219.0) {
                        var39 = -0.0064855176;
                    } else {
                        var39 = 0.08533056;
                    }
                } else {
                    if (input[0] < 17.0) {
                        var39 = 0.055363435;
                    } else {
                        var39 = -0.043628555;
                    }
                }
            } else {
                var39 = -0.0711888;
            }
        }
    }
    double var40;
    if (input[33] < 0.8685726) {
        var40 = -0.09185094;
    } else {
        if (input[35] < 0.9932802) {
            if (input[11] < 55907940.0) {
                if (input[21] < 0.65070313) {
                    var40 = 0.06418471;
                } else {
                    var40 = -0.0065241545;
                }
            } else {
                if (input[11] < 85074880.0) {
                    if (input[10] < 2718.0) {
                        var40 = -0.014289445;
                    } else {
                        var40 = -0.09190445;
                    }
                } else {
                    var40 = 0.016783847;
                }
            }
        } else {
            if (input[25] < 1.7) {
                if (input[7] < 18479.0) {
                    if (input[7] < 16392.0) {
                        var40 = 0.06853758;
                    } else {
                        var40 = -0.19364688;
                    }
                } else {
                    var40 = 0.09650649;
                }
            } else {
                var40 = -0.06981397;
            }
        }
    }
    double var41;
    if (input[18] < 0.99344987) {
        if (input[14] < 0.66492057) {
            var41 = -0.0913892;
        } else {
            var41 = 0.003924856;
        }
    } else {
        if (input[6] < 191.0) {
            if (input[18] < 1.2592949) {
                var41 = -0.09358024;
            } else {
                var41 = 0.013327497;
            }
        } else {
            if (input[25] < 1.7) {
                if (input[2] < 2352.0) {
                    if (input[1] < -2476.0) {
                        var41 = 0.0050744517;
                    } else {
                        var41 = 0.08847257;
                    }
                } else {
                    if (input[40] < 1.0053821) {
                        var41 = 0.054312278;
                    } else {
                        var41 = -0.053400137;
                    }
                }
            } else {
                var41 = -0.06806313;
            }
        }
    }
    double var42;
    if (input[18] < 0.99344987) {
        if (input[14] < 0.66492057) {
            var42 = -0.09012862;
        } else {
            var42 = 0.0037276254;
        }
    } else {
        if (input[6] < 191.0) {
            if (input[8] < 7918.0) {
                var42 = -0.09233549;
            } else {
                var42 = 0.012570354;
            }
        } else {
            if (input[25] < 1.7) {
                if (input[2] < 2289.0) {
                    if (input[1] < -2476.0) {
                        var42 = 0.004731708;
                    } else {
                        var42 = 0.08709575;
                    }
                } else {
                    if (input[40] < 1.0053821) {
                        var42 = 0.053329654;
                    } else {
                        var42 = -0.050278462;
                    }
                }
            } else {
                var42 = -0.06650792;
            }
        }
    }
    double var43;
    if (input[33] < 0.8685726) {
        var43 = -0.089180164;
    } else {
        if (input[34] < 1.0011421) {
            if (input[25] < 1.7) {
                if (input[1] < -2476.0) {
                    if (input[46] < 3.071882) {
                        var43 = -0.11596533;
                    } else {
                        var43 = 0.06742465;
                    }
                } else {
                    if (input[6] < 191.0) {
                        var43 = -0.000039770646;
                    } else {
                        var43 = 0.08835572;
                    }
                }
            } else {
                var43 = -0.065150276;
            }
        } else {
            if (input[33] < 0.9355784) {
                if (input[10] < 2560.3333) {
                    var43 = -0.009811853;
                } else {
                    var43 = -0.10863171;
                }
            } else {
                if (input[0] < 18.0) {
                    if (input[1] < 463.0) {
                        var43 = 0.085422955;
                    } else {
                        var43 = 0.007881454;
                    }
                } else {
                    if (input[18] < 1.0625757) {
                        var43 = -0.08126741;
                    } else {
                        var43 = 0.05328245;
                    }
                }
            }
        }
    }
    double var44;
    if (input[9] < 3669.0) {
        if (input[36] < 1.0163693) {
            if (input[0] < 11.0) {
                if (input[18] < 1.0017148) {
                    var44 = -0.08850785;
                } else {
                    if (input[31] < 0.88398093) {
                        var44 = -0.0715055;
                    } else {
                        var44 = 0.061596733;
                    }
                }
            } else {
                var44 = -0.19110222;
            }
        } else {
            if (input[47] < 3.2795317) {
                if (input[18] < 1.25) {
                    var44 = -0.11155716;
                } else {
                    var44 = 0.04082402;
                }
            } else {
                if (input[6] < 191.0) {
                    var44 = -0.030768985;
                } else {
                    var44 = 0.088276096;
                }
            }
        }
    } else {
        if (input[17] < 0.9310345) {
            if (input[0] < 18.0) {
                if (input[33] < 0.93868613) {
                    var44 = -0.03981471;
                } else {
                    var44 = 0.075333916;
                }
            } else {
                if (input[45] < 535.06976) {
                    var44 = 0.0029495673;
                } else {
                    var44 = -0.0764366;
                }
            }
        } else {
            var44 = 0.094355665;
        }
    }
    double var45;
    if (input[9] < 3669.0) {
        if (input[8] < 6764.0) {
            if (input[9] < 3079.0) {
                if (input[18] < 1.0017148) {
                    var45 = -0.086356066;
                } else {
                    if (input[4] < 134.0) {
                        var45 = -0.06635115;
                    } else {
                        var45 = 0.07764178;
                    }
                }
            } else {
                var45 = -0.22766232;
            }
        } else {
            if (input[1] < -471.0) {
                if (input[12] < 1170774.0) {
                    if (input[45] < 879.03845) {
                        var45 = -0.13015173;
                    } else {
                        var45 = -0.0075252824;
                    }
                } else {
                    if (input[26] < 1.3055556) {
                        var45 = 0.068101995;
                    } else {
                        var45 = -0.031380415;
                    }
                }
            } else {
                var45 = 0.078779265;
            }
        }
    } else {
        if (input[17] < 0.9310345) {
            if (input[0] < 18.0) {
                if (input[33] < 0.939616) {
                    var45 = -0.034619357;
                } else {
                    var45 = 0.07190787;
                }
            } else {
                if (input[45] < 535.06976) {
                    var45 = 0.0027989203;
                } else {
                    var45 = -0.07399978;
                }
            }
        } else {
            var45 = 0.093632385;
        }
    }
    double var46;
    if (input[9] < 3669.0) {
        if (input[8] < 6764.0) {
            if (input[9] < 3079.0) {
                if (input[18] < 1.0017148) {
                    var46 = -0.085189074;
                } else {
                    if (input[4] < 134.0) {
                        var46 = -0.06479219;
                    } else {
                        var46 = 0.0760099;
                    }
                }
            } else {
                var46 = -0.21694024;
            }
        } else {
            if (input[1] < -471.0) {
                if (input[12] < 1170774.0) {
                    if (input[49] < 22.879395) {
                        var46 = -0.12798683;
                    } else {
                        var46 = -0.010030892;
                    }
                } else {
                    if (input[26] < 1.3035715) {
                        var46 = 0.06593219;
                    } else {
                        var46 = -0.028235484;
                    }
                }
            } else {
                var46 = 0.076460615;
            }
        }
    } else {
        if (input[17] < 0.9310345) {
            if (input[11] < 55907940.0) {
                var46 = 0.05644859;
            } else {
                if (input[3] < 8119.0) {
                    var46 = -0.07804011;
                } else {
                    if (input[12] < 3131802.0) {
                        var46 = -0.028838951;
                    } else {
                        var46 = 0.0537135;
                    }
                }
            }
        } else {
            var46 = 0.092868224;
        }
    }
    double var47;
    if (input[9] < 3669.0) {
        if (input[8] < 6764.0) {
            if (input[4] < 6614.0) {
                if (input[18] < 1.0017148) {
                    var47 = -0.08408505;
                } else {
                    if (input[4] < 134.0) {
                        var47 = -0.0632474;
                    } else {
                        var47 = 0.07442868;
                    }
                }
            } else {
                var47 = -0.20647971;
            }
        } else {
            if (input[1] < -471.0) {
                if (input[12] < 1170774.0) {
                    if (input[49] < 22.879395) {
                        var47 = -0.12260753;
                    } else {
                        var47 = -0.009513948;
                    }
                } else {
                    if (input[26] < 1.3035715) {
                        var47 = 0.0641229;
                    } else {
                        var47 = -0.026954545;
                    }
                }
            } else {
                if (input[15] < 0.47160774) {
                    var47 = 0.020601368;
                } else {
                    var47 = 0.08074563;
                }
            }
        }
    } else {
        if (input[17] < 0.9310345) {
            if (input[0] < 18.0) {
                if (input[33] < 0.939616) {
                    var47 = -0.032121647;
                } else {
                    var47 = 0.06842726;
                }
            } else {
                if (input[45] < 541.3333) {
                    var47 = 0.0019689198;
                } else {
                    var47 = -0.07035612;
                }
            }
        } else {
            var47 = 0.092059515;
        }
    }
    double var48;
    if (input[0] < 31.0) {
        if (input[46] < 3.1456878) {
            if (input[7] < 14187.0) {
                if (input[5] < 128.0) {
                    var48 = -0.07625892;
                } else {
                    var48 = 0.06580459;
                }
            } else {
                if (input[9] < 3831.0) {
                    var48 = -0.30297276;
                } else {
                    if (input[17] < 0.9122807) {
                        var48 = -0.06867286;
                    } else {
                        var48 = 0.034598093;
                    }
                }
            }
        } else {
            if (input[18] < 1.0017148) {
                var48 = -0.07006939;
            } else {
                if (input[31] < 0.8553038) {
                    if (input[38] < 0.6114523) {
                        var48 = 0.058944978;
                    } else {
                        var48 = -0.07720809;
                    }
                } else {
                    if (input[46] < 3.321928) {
                        var48 = 0.017718775;
                    } else {
                        var48 = 0.08848973;
                    }
                }
            }
        }
    } else {
        var48 = 0.08676293;
    }
    double var49;
    if (input[9] < 3669.0) {
        if (input[17] < 1.2020202) {
            if (input[10] < 3431.3333) {
                if (input[33] < 0.88350046) {
                    var49 = -0.07923701;
                } else {
                    if (input[18] < 1.0246637) {
                        var49 = -0.020947265;
                    } else {
                        var49 = 0.06555586;
                    }
                }
            } else {
                var49 = -0.17674756;
            }
        } else {
            if (input[10] < 2707.3333) {
                if (input[11] < 47752824.0) {
                    var49 = 0.0587219;
                } else {
                    if (input[44] < 635.7143) {
                        var49 = -0.09778153;
                    } else {
                        var49 = 0.013199923;
                    }
                }
            } else {
                if (input[15] < 0.46687672) {
                    var49 = 0.022728082;
                } else {
                    var49 = 0.081118084;
                }
            }
        }
    } else {
        if (input[17] < 0.9310345) {
            if (input[11] < 55907940.0) {
                var49 = 0.053565938;
            } else {
                if (input[3] < 8119.0) {
                    var49 = -0.07478427;
                } else {
                    var49 = 0.01302277;
                }
            }
        } else {
            var49 = 0.0904838;
        }
    }
    double var50;
    if (input[0] < 31.0) {
        if (input[47] < 3.2795317) {
            if (input[45] < 444.5263) {
                if (input[5] < 128.0) {
                    var50 = -0.07411824;
                } else {
                    if (input[42] < 1.0742569) {
                        var50 = -0.026684234;
                    } else {
                        var50 = 0.064792715;
                    }
                }
            } else {
                if (input[7] < 34044.0) {
                    var50 = -0.24039249;
                } else {
                    var50 = -0.036811247;
                }
            }
        } else {
            if (input[18] < 1.0017148) {
                var50 = -0.06850965;
            } else {
                if (input[31] < 0.8553038) {
                    if (input[38] < 0.6114523) {
                        var50 = 0.052639484;
                    } else {
                        var50 = -0.07119473;
                    }
                } else {
                    if (input[46] < 3.321928) {
                        var50 = 0.0008127764;
                    } else {
                        var50 = 0.08635722;
                    }
                }
            }
        }
    } else {
        var50 = 0.0844418;
    }
    double var51;
    if (input[9] < 3669.0) {
        if (input[17] < 1.2020202) {
            if (input[10] < 3431.3333) {
                if (input[33] < 0.88350046) {
                    var51 = -0.07665055;
                } else {
                    if (input[34] < 1.0063959) {
                        var51 = 0.058690753;
                    } else {
                        var51 = -0.012277028;
                    }
                }
            } else {
                var51 = -0.17355643;
            }
        } else {
            if (input[1] < -471.0) {
                if (input[47] < 3.2958503) {
                    var51 = -0.1109702;
                } else {
                    if (input[24] < 1.4117647) {
                        var51 = 0.041848294;
                    } else {
                        var51 = -0.052995414;
                    }
                }
            } else {
                if (input[4] < 219.0) {
                    var51 = 0.014128049;
                } else {
                    var51 = 0.07929756;
                }
            }
        }
    } else {
        if (input[17] < 0.9310345) {
            if (input[11] < 55907940.0) {
                var51 = 0.05097683;
            } else {
                if (input[3] < 8668.0) {
                    var51 = -0.063347;
                } else {
                    var51 = 0.024539325;
                }
            }
        } else {
            var51 = 0.08884423;
        }
    }
    double var52;
    if (input[9] < 3669.0) {
        if (input[47] < 3.6255214) {
            if (input[45] < 444.5263) {
                if (input[5] < 128.0) {
                    var52 = -0.07388475;
                } else {
                    if (input[18] < 1.1735058) {
                        var52 = -0.007476527;
                    } else {
                        var52 = 0.064138286;
                    }
                }
            } else {
                var52 = -0.22573471;
            }
        } else {
            if (input[18] < 1.090636) {
                if (input[18] < 1.0017148) {
                    var52 = -0.07093685;
                } else {
                    if (input[31] < 0.8819015) {
                        var52 = -0.054501034;
                    } else {
                        var52 = 0.042475313;
                    }
                }
            } else {
                if (input[4] < 134.0) {
                    var52 = -0.009487676;
                } else {
                    var52 = 0.08151319;
                }
            }
        }
    } else {
        if (input[17] < 0.9310345) {
            if (input[0] < 18.0) {
                if (input[25] < 0.6979764) {
                    var52 = 0.05884071;
                } else {
                    var52 = -0.01689253;
                }
            } else {
                if (input[45] < 769.25) {
                    var52 = -0.0070810053;
                } else {
                    var52 = -0.06011377;
                }
            }
        } else {
            var52 = 0.08780906;
        }
    }
    double var53;
    if (input[0] < 32.0) {
        if (input[47] < 3.2795317) {
            if (input[8] < 7918.0) {
                if (input[45] < 444.5263) {
                    if (input[46] < 2.3437538) {
                        var53 = -0.07742868;
                    } else {
                        var53 = 0.018107124;
                    }
                } else {
                    if (input[0] < 20.0) {
                        var53 = -0.2202081;
                    } else {
                        var53 = -0.031567946;
                    }
                }
            } else {
                var53 = 0.03798474;
            }
        } else {
            if (input[18] < 1.0017148) {
                var53 = -0.06386223;
            } else {
                if (input[31] < 0.8553038) {
                    if (input[8] < 8294.0) {
                        var53 = -0.06383171;
                    } else {
                        var53 = 0.05570637;
                    }
                } else {
                    if (input[47] < 3.6611514) {
                        var53 = 0.00022875685;
                    } else {
                        var53 = 0.0828545;
                    }
                }
            }
        }
    } else {
        var53 = 0.08169474;
    }
    double var54;
    if (input[9] < 3669.0) {
        if (input[17] < 1.2020202) {
            if (input[10] < 3431.3333) {
                if (input[33] < 0.88350046) {
                    var54 = -0.07269106;
                } else {
                    if (input[36] < 1.0033246) {
                        var54 = -0.004304983;
                    } else {
                        var54 = 0.052770305;
                    }
                }
            } else {
                var54 = -0.15969299;
            }
        } else {
            if (input[10] < 2707.3333) {
                if (input[11] < 47752824.0) {
                    var54 = 0.05226859;
                } else {
                    if (input[2] < -704.0) {
                        var54 = 0.0020427178;
                    } else {
                        var54 = -0.09322783;
                    }
                }
            } else {
                var54 = 0.07019748;
            }
        }
    } else {
        if (input[17] < 0.9310345) {
            if (input[11] < 55907940.0) {
                var54 = 0.048544314;
            } else {
                if (input[3] < 8119.0) {
                    var54 = -0.069774024;
                } else {
                    var54 = 0.013755848;
                }
            }
        } else {
            var54 = 0.085951336;
        }
    }
    double var55;
    if (input[27] < 0.72354305) {
        if (input[44] < 1609.75) {
            var55 = 0.08099158;
        } else {
            var55 = -0.005403794;
        }
    } else {
        if (input[47] < 3.2795317) {
            if (input[18] < 1.25) {
                if (input[7] < 18479.0) {
                    if (input[7] < 14187.0) {
                        var55 = -0.040461514;
                    } else {
                        var55 = -0.20605071;
                    }
                } else {
                    var55 = -0.0075223246;
                }
            } else {
                var55 = 0.036222015;
            }
        } else {
            if (input[18] < 1.0017148) {
                var55 = -0.07071161;
            } else {
                if (input[44] < 1179.1818) {
                    if (input[25] < 1.3025355) {
                        var55 = -0.06448344;
                    } else {
                        var55 = 0.035067644;
                    }
                } else {
                    if (input[18] < 1.05) {
                        var55 = 0.019509556;
                    } else {
                        var55 = 0.07720133;
                    }
                }
            }
        }
    }
    double var56;
    if (input[0] < 32.0) {
        if (input[46] < 3.1456878) {
            if (input[8] < 7918.0) {
                if (input[11] < 58786210.0) {
                    var56 = 0.00952037;
                } else {
                    if (input[6] < 6908.0) {
                        var56 = -0.029270295;
                    } else {
                        var56 = -0.13278078;
                    }
                }
            } else {
                var56 = 0.033134084;
            }
        } else {
            if (input[18] < 0.97482157) {
                var56 = -0.061878648;
            } else {
                if (input[31] < 0.8553038) {
                    if (input[14] < 0.37777096) {
                        var56 = 0.03797754;
                    } else {
                        var56 = -0.06756085;
                    }
                } else {
                    if (input[46] < 3.321928) {
                        var56 = 0.013951664;
                    } else {
                        var56 = 0.08015122;
                    }
                }
            }
        }
    } else {
        var56 = 0.07762511;
    }
    double var57;
    if (input[27] < 0.72354305) {
        if (input[17] < 0.86302114) {
            var57 = -0.005984311;
        } else {
            var57 = 0.0782313;
        }
    } else {
        if (input[47] < 3.2795317) {
            if (input[18] < 1.25) {
                if (input[7] < 18479.0) {
                    if (input[7] < 14187.0) {
                        var57 = -0.037125073;
                    } else {
                        var57 = -0.16814056;
                    }
                } else {
                    var57 = -0.003017862;
                }
            } else {
                var57 = 0.032939367;
            }
        } else {
            if (input[18] < 1.0017148) {
                var57 = -0.06790268;
            } else {
                if (input[44] < 1179.1818) {
                    if (input[25] < 1.3025355) {
                        var57 = -0.058309942;
                    } else {
                        var57 = 0.032043755;
                    }
                } else {
                    if (input[7] < 35925.0) {
                        var57 = 0.07482256;
                    } else {
                        var57 = 0.018526075;
                    }
                }
            }
        }
    }
    double var58;
    if (input[27] < 0.72354305) {
        if (input[44] < 1609.75) {
            var58 = 0.07700549;
        } else {
            var58 = -0.0048293513;
        }
    } else {
        if (input[3] < 10106.0) {
            if (input[11] < 59475404.0) {
                if (input[33] < 0.91854846) {
                    var58 = -0.023659864;
                } else {
                    var58 = 0.0598899;
                }
            } else {
                if (input[46] < 3.1456878) {
                    if (input[44] < 436.55554) {
                        var58 = -0.024169778;
                    } else {
                        var58 = -0.14510602;
                    }
                } else {
                    if (input[18] < 1.0689852) {
                        var58 = -0.03900294;
                    } else {
                        var58 = 0.05456828;
                    }
                }
            }
        } else {
            var58 = 0.06507218;
        }
    }
    double var59;
    if (input[9] < 3669.0) {
        if (input[8] < 8210.0) {
            if (input[44] < 775.2) {
                if (input[7] < 14187.0) {
                    if (input[31] < 0.87647825) {
                        var59 = -0.06823728;
                    } else {
                        var59 = 0.036804613;
                    }
                } else {
                    var59 = -0.13006125;
                }
            } else {
                if (input[18] < 1.0655738) {
                    var59 = -0.027423054;
                } else {
                    var59 = 0.065737784;
                }
            }
        } else {
            var59 = 0.062216897;
        }
    } else {
        if (input[17] < 0.9310345) {
            if (input[0] < 18.0) {
                if (input[10] < 3004.3333) {
                    var59 = 0.05338211;
                } else {
                    var59 = -0.013513692;
                }
            } else {
                var59 = -0.042339534;
            }
        } else {
            var59 = 0.08175158;
        }
    }
    double var60;
    if (input[33] < 0.8685726) {
        var60 = -0.07281528;
    } else {
        if (input[45] < 444.5263) {
            if (input[6] < 191.0) {
                var60 = -0.019613165;
            } else {
                if (input[1] < -1644.0) {
                    var60 = 0.002724883;
                } else {
                    var60 = 0.08065002;
                }
            }
        } else {
            if (input[45] < 525.67444) {
                var60 = -0.11770272;
            } else {
                if (input[35] < 0.98178095) {
                    var60 = -0.06338281;
                } else {
                    if (input[45] < 1043.0769) {
                        var60 = -0.0007106151;
                    } else {
                        var60 = 0.07074002;
                    }
                }
            }
        }
    }
    double var61;
    if (input[33] < 0.8685726) {
        var61 = -0.07132993;
    } else {
        if (input[45] < 444.5263) {
            if (input[6] < 191.0) {
                var61 = -0.018446447;
            } else {
                if (input[2] < 2660.0) {
                    var61 = 0.080907665;
                } else {
                    var61 = 0.0073078508;
                }
            }
        } else {
            if (input[46] < 3.1456878) {
                if (input[7] < 18479.0) {
                    var61 = -0.12425172;
                } else {
                    if (input[17] < 0.91935486) {
                        var61 = -0.05538558;
                    } else {
                        var61 = 0.052149232;
                    }
                }
            } else {
                if (input[35] < 0.98178095) {
                    var61 = -0.051333945;
                } else {
                    if (input[37] < 0.57330066) {
                        var61 = -0.026302842;
                    } else {
                        var61 = 0.07395075;
                    }
                }
            }
        }
    }
    double var62;
    if (input[0] < 32.0) {
        if (input[47] < 3.2795317) {
            if (input[8] < 7918.0) {
                if (input[3] < 8598.0) {
                    if (input[45] < 444.5263) {
                        var62 = -0.026137928;
                    } else {
                        var62 = -0.12248143;
                    }
                } else {
                    var62 = -0.0023440388;
                }
            } else {
                var62 = 0.031476118;
            }
        } else {
            if (input[25] < 1.7) {
                if (input[35] < 0.98178095) {
                    var62 = -0.04112934;
                } else {
                    if (input[6] < 191.0) {
                        var62 = -0.033708315;
                    } else {
                        var62 = 0.066065975;
                    }
                }
            } else {
                var62 = -0.059252646;
            }
        }
    } else {
        var62 = 0.069185354;
    }
    double var63;
    if (input[15] < 0.5431859) {
        if (input[17] < 1.2020202) {
            if (input[45] < 1043.0769) {
                if (input[2] < 866.0) {
                    var63 = -0.020473871;
                } else {
                    var63 = -0.11952855;
                }
            } else {
                if (input[18] < 0.97482157) {
                    var63 = -0.05029766;
                } else {
                    var63 = 0.054812133;
                }
            }
        } else {
            if (input[10] < 2679.3333) {
                if (input[35] < 1.0390139) {
                    var63 = 0.027418083;
                } else {
                    if (input[8] < 7918.0) {
                        var63 = -0.08488139;
                    } else {
                        var63 = 0.00611956;
                    }
                }
            } else {
                var63 = 0.067182764;
            }
        }
    } else {
        if (input[35] < 0.9890948) {
            if (input[7] < 58988.0) {
                var63 = 0.025460992;
            } else {
                var63 = -0.040831883;
            }
        } else {
            var63 = 0.06941436;
        }
    }
    double var64;
    if (input[27] < 0.72354305) {
        if (input[44] < 1609.75) {
            var64 = 0.06965921;
        } else {
            var64 = -0.0053450083;
        }
    } else {
        if (input[3] < 10106.0) {
            if (input[11] < 59475404.0) {
                if (input[6] < 4913.0) {
                    var64 = -0.017586488;
                } else {
                    var64 = 0.053628463;
                }
            } else {
                if (input[9] < 2114.0) {
                    if (input[5] < 128.0) {
                        var64 = -0.069741726;
                    } else {
                        var64 = 0.05089156;
                    }
                } else {
                    if (input[7] < 18479.0) {
                        var64 = -0.11081425;
                    } else {
                        var64 = 0.0071582794;
                    }
                }
            }
        } else {
            var64 = 0.05987061;
        }
    }
    double var65;
    if (input[33] < 0.8685726) {
        var65 = -0.067147814;
    } else {
        if (input[45] < 444.5263) {
            if (input[6] < 191.0) {
                var65 = -0.016687611;
            } else {
                if (input[2] < 2660.0) {
                    var65 = 0.07702531;
                } else {
                    var65 = 0.0039355825;
                }
            }
        } else {
            if (input[46] < 3.1456878) {
                if (input[7] < 18479.0) {
                    if (input[17] < 1.2020202) {
                        var65 = -0.11777623;
                    } else {
                        var65 = -0.02852687;
                    }
                } else {
                    if (input[17] < 0.9122807) {
                        var65 = -0.047339734;
                    } else {
                        var65 = 0.03673639;
                    }
                }
            } else {
                if (input[18] < 1.0689852) {
                    if (input[32] < 0.9350297) {
                        var65 = -0.033650044;
                    } else {
                        var65 = 0.046360403;
                    }
                } else {
                    var65 = 0.066552;
                }
            }
        }
    }
    double var66;
    if (input[33] < 0.8685726) {
        var66 = -0.06563823;
    } else {
        if (input[40] < 1.0053821) {
            if (input[6] < 9121.0) {
                if (input[33] < 0.925348) {
                    if (input[10] < 2679.3333) {
                        var66 = -0.0031782833;
                    } else {
                        var66 = 0.072202995;
                    }
                } else {
                    var66 = -0.07216451;
                }
            } else {
                var66 = 0.076417;
            }
        } else {
            if (input[10] < 3065.3333) {
                if (input[39] < 0.74757105) {
                    var66 = -0.0114685735;
                } else {
                    var66 = 0.039968893;
                }
            } else {
                if (input[7] < 29095.0) {
                    var66 = -0.08041696;
                } else {
                    var66 = -0.010728234;
                }
            }
        }
    }
    double var67;
    if (input[18] < 0.99998474) {
        var67 = -0.05723211;
    } else {
        if (input[27] < 0.72354305) {
            var67 = 0.06061676;
        } else {
            if (input[45] < 1130.0) {
                if (input[8] < 8210.0) {
                    if (input[27] < 1.0935484) {
                        var67 = -0.05814922;
                    } else {
                        var67 = 0.0045964154;
                    }
                } else {
                    var67 = 0.054689545;
                }
            } else {
                var67 = 0.053947162;
            }
        }
    }
    double var68;
    if (input[33] < 0.8685726) {
        var68 = -0.06334249;
    } else {
        if (input[45] < 444.5263) {
            if (input[6] < 191.0) {
                var68 = -0.01550141;
            } else {
                if (input[2] < 2660.0) {
                    var68 = 0.07418056;
                } else {
                    var68 = 0.0037297604;
                }
            }
        } else {
            if (input[46] < 3.1456878) {
                if (input[11] < 75777384.0) {
                    if (input[45] < 525.67444) {
                        var68 = -0.106574796;
                    } else {
                        var68 = -0.011354183;
                    }
                } else {
                    var68 = -0.00024344515;
                }
            } else {
                if (input[18] < 1.0689852) {
                    if (input[32] < 0.9350297) {
                        var68 = -0.031451095;
                    } else {
                        var68 = 0.042976487;
                    }
                } else {
                    var68 = 0.0631898;
                }
            }
        }
    }
    double var69;
    if (input[33] < 0.8685726) {
        var69 = -0.061851677;
    } else {
        if (input[40] < 1.0053821) {
            if (input[1] < -2476.0) {
                var69 = -0.035180736;
            } else {
                if (input[31] < 0.8546023) {
                    if (input[18] < 1.2255772) {
                        var69 = -0.041648958;
                    } else {
                        var69 = 0.035326082;
                    }
                } else {
                    if (input[10] < 3431.3333) {
                        var69 = 0.07735359;
                    } else {
                        var69 = 0.019764308;
                    }
                }
            }
        } else {
            if (input[10] < 3065.3333) {
                if (input[2] < -57.0) {
                    var69 = -0.011531904;
                } else {
                    var69 = 0.035443943;
                }
            } else {
                if (input[7] < 29095.0) {
                    var69 = -0.07399173;
                } else {
                    var69 = -0.011166793;
                }
            }
        }
    }
    double var70;
    if (input[0] < 32.0) {
        if (input[11] < 81866560.0) {
            if (input[11] < 58073012.0) {
                if (input[33] < 0.9211734) {
                    var70 = -0.007033562;
                } else {
                    var70 = 0.052646954;
                }
            } else {
                if (input[9] < 2114.0) {
                    if (input[5] < 128.0) {
                        var70 = -0.060976643;
                    } else {
                        var70 = 0.0434467;
                    }
                } else {
                    if (input[45] < 1130.0) {
                        var70 = -0.09683662;
                    } else {
                        var70 = -0.010271164;
                    }
                }
            }
        } else {
            if (input[46] < 3.1456878) {
                if (input[17] < 1.1552287) {
                    var70 = -0.032726426;
                } else {
                    var70 = 0.023121653;
                }
            } else {
                var70 = 0.059926648;
            }
        }
    } else {
        var70 = 0.0581696;
    }
    double var71;
    if (input[18] < 0.99998474) {
        var71 = -0.05300873;
    } else {
        if (input[15] < 0.58350676) {
            if (input[45] < 1049.4) {
                if (input[24] < 1.3019494) {
                    if (input[15] < 0.53620654) {
                        var71 = -0.06692436;
                    } else {
                        var71 = 0.01335904;
                    }
                } else {
                    if (input[10] < 2896.0) {
                        var71 = -0.009428893;
                    } else {
                        var71 = 0.051781334;
                    }
                }
            } else {
                if (input[18] < 1.0655738) {
                    var71 = 0.0113198375;
                } else {
                    var71 = 0.057490766;
                }
            }
        } else {
            var71 = 0.055801887;
        }
    }
    double var72;
    if (input[33] < 0.8685726) {
        var72 = -0.05865633;
    } else {
        if (input[40] < 1.0053821) {
            if (input[6] < 9121.0) {
                if (input[33] < 0.925348) {
                    if (input[1] < -471.0) {
                        var72 = -0.0037831587;
                    } else {
                        var72 = 0.06693776;
                    }
                } else {
                    var72 = -0.055903047;
                }
            } else {
                var72 = 0.07160013;
            }
        } else {
            if (input[10] < 3065.3333) {
                if (input[8] < 4237.0) {
                    var72 = -0.0100818975;
                } else {
                    var72 = 0.034259666;
                }
            } else {
                if (input[3] < 8340.0) {
                    var72 = -0.065757595;
                } else {
                    var72 = -0.0022219652;
                }
            }
        }
    }
    double var73;
    if (input[33] < 0.8685726) {
        var73 = -0.05722214;
    } else {
        if (input[45] < 444.5263) {
            if (input[6] < 191.0) {
                var73 = -0.015585442;
            } else {
                if (input[2] < 2660.0) {
                    var73 = 0.07012417;
                } else {
                    var73 = 0.0031903416;
                }
            }
        } else {
            if (input[46] < 3.1456878) {
                if (input[16] < 0.98483175) {
                    var73 = -0.0041071903;
                } else {
                    var73 = -0.07560622;
                }
            } else {
                if (input[18] < 1.0689852) {
                    if (input[32] < 0.9350297) {
                        var73 = -0.02910499;
                    } else {
                        var73 = 0.039781164;
                    }
                } else {
                    var73 = 0.058104288;
                }
            }
        }
    }
    double var74;
    if (input[8] < 8210.0) {
        if (input[31] < 0.884663) {
            if (input[1] < -471.0) {
                var74 = -0.080336094;
            } else {
                var74 = -0.004298784;
            }
        } else {
            if (input[40] < 1.0053821) {
                if (input[44] < 510.75) {
                    if (input[44] < 436.55554) {
                        var74 = 0.031420715;
                    } else {
                        var74 = -0.045347046;
                    }
                } else {
                    var74 = 0.07260019;
                }
            } else {
                if (input[10] < 3065.3333) {
                    if (input[8] < 4237.0) {
                        var74 = -0.01016929;
                    } else {
                        var74 = 0.028363151;
                    }
                } else {
                    if (input[11] < 85074880.0) {
                        var74 = -0.062247135;
                    } else {
                        var74 = -0.0051582274;
                    }
                }
            }
        }
    } else {
        var74 = 0.05596996;
    }
    double var75;
    if (input[15] < 0.5431859) {
        if (input[3] < 10106.0) {
            if (input[11] < 59475404.0) {
                var75 = 0.025532072;
            } else {
                if (input[9] < 2114.0) {
                    if (input[5] < 128.0) {
                        var75 = -0.0553235;
                    } else {
                        var75 = 0.04289661;
                    }
                } else {
                    if (input[7] < 18479.0) {
                        var75 = -0.08957593;
                    } else {
                        var75 = 0.008013322;
                    }
                }
            }
        } else {
            var75 = 0.0513793;
        }
    } else {
        if (input[35] < 0.9890948) {
            var75 = -0.011951047;
        } else {
            var75 = 0.058048923;
        }
    }
    double var76;
    if (input[18] < 0.99998474) {
        var76 = -0.047684602;
    } else {
        if (input[43] < 365.75) {
            if (input[8] < 7918.0) {
                if (input[7] < 18479.0) {
                    if (input[9] < 3079.0) {
                        var76 = -0.0099900905;
                    } else {
                        var76 = -0.090529755;
                    }
                } else {
                    var76 = 0.034946043;
                }
            } else {
                var76 = 0.041772153;
            }
        } else {
            if (input[34] < 1.0141193) {
                var76 = 0.060165096;
            } else {
                var76 = -0.0037947127;
            }
        }
    }
    double var77;
    if (input[33] < 0.8685726) {
        var77 = -0.053511616;
    } else {
        if (input[45] < 444.5263) {
            if (input[6] < 191.0) {
                var77 = -0.01596765;
            } else {
                if (input[2] < 2593.0) {
                    var77 = 0.06633878;
                } else {
                    var77 = 0.004695955;
                }
            }
        } else {
            if (input[46] < 3.1456878) {
                if (input[16] < 0.98483175) {
                    var77 = -0.0030018864;
                } else {
                    var77 = -0.06775706;
                }
            } else {
                if (input[3] < 8292.0) {
                    if (input[34] < 1.0124332) {
                        var77 = 0.022197766;
                    } else {
                        var77 = -0.023524255;
                    }
                } else {
                    var77 = 0.05186549;
                }
            }
        }
    }
    double var78;
    if (input[11] < 78660824.0) {
        if (input[11] < 58073012.0) {
            if (input[33] < 0.92342514) {
                var78 = -0.000765654;
            } else {
                var78 = 0.05299765;
            }
        } else {
            if (input[45] < 444.5263) {
                if (input[5] < 128.0) {
                    var78 = -0.052629184;
                } else {
                    var78 = 0.044378694;
                }
            } else {
                if (input[0] < 12.0) {
                    var78 = -0.00304716;
                } else {
                    var78 = -0.08088332;
                }
            }
        }
    } else {
        if (input[36] < 1.0163693) {
            if (input[32] < 0.9200829) {
                var78 = -0.034150317;
            } else {
                var78 = 0.035714664;
            }
        } else {
            var78 = 0.055441886;
        }
    }
    double var79;
    if (input[18] < 0.99998474) {
        var79 = -0.044997584;
    } else {
        if (input[44] < 914.0) {
            if (input[8] < 7918.0) {
                if (input[27] < 0.8874126) {
                    var79 = 0.028585026;
                } else {
                    if (input[27] < 1.0747868) {
                        var79 = -0.074530646;
                    } else {
                        var79 = 0.010651129;
                    }
                }
            } else {
                var79 = 0.040775564;
            }
        } else {
            if (input[34] < 1.0141193) {
                var79 = 0.062079605;
            } else {
                var79 = -0.0066344305;
            }
        }
    }
    double var80;
    if (input[33] < 0.88350046) {
        if (input[20] < 1.9166666) {
            var80 = -0.05942746;
        } else {
            var80 = 0.0023524563;
        }
    } else {
        if (input[45] < 278.14285) {
            var80 = 0.05769634;
        } else {
            if (input[46] < 3.1456878) {
                if (input[16] < 0.98483175) {
                    if (input[44] < 462.0) {
                        var80 = -0.041750975;
                    } else {
                        var80 = 0.03945225;
                    }
                } else {
                    var80 = -0.054529667;
                }
            } else {
                if (input[11] < 73397320.0) {
                    if (input[13] < 0.4854413) {
                        var80 = 0.022800516;
                    } else {
                        var80 = -0.020723099;
                    }
                } else {
                    var80 = 0.052137017;
                }
            }
        }
    }
    double var81;
    if (input[11] < 47752824.0) {
        var81 = 0.045139473;
    } else {
        if (input[11] < 78660824.0) {
            if (input[46] < 2.6744246) {
                var81 = 0.00988163;
            } else {
                if (input[0] < 12.0) {
                    if (input[31] < 0.88398093) {
                        var81 = -0.04232996;
                    } else {
                        var81 = 0.025210092;
                    }
                } else {
                    var81 = -0.06794857;
                }
            }
        } else {
            if (input[36] < 1.0163693) {
                if (input[4] < 8043.0) {
                    var81 = -0.028625939;
                } else {
                    var81 = 0.03299868;
                }
            } else {
                var81 = 0.052661408;
            }
        }
    }
    double var82;
    if (input[33] < 0.88350046) {
        if (input[20] < 1.9166666) {
            var82 = -0.057412338;
        } else {
            var82 = 0.0019746423;
        }
    } else {
        if (input[45] < 278.14285) {
            var82 = 0.055016447;
        } else {
            if (input[46] < 3.1456878) {
                if (input[16] < 0.98483175) {
